-1.04630117504e-14,1.64836541769e-14,-8.95934530992e-15,5.86282324772e-16,2.99828487504e-15,-9.2785344295e-16,-2.5155658806e-15,-1.02126034002e-14,4.43026691721e-15,-3.24255054231e-15,8.4228956275e-16,5.81636518462e-15,2.1057374594e-15,3.32232071715e-15,-4.13203000461e-15,-5.4183545671e-15,-5.5569427098e-16,2.15229039018e-15,2.06914563608e-15,3.38390340054e-15,-3.7903165849e-15,4.31561253747e-15,1.45437589923e-15,4.08315959169e-15,2.83643551355e-15,-2.80808362674e-17,-2.97212341543e-15,4.82041706898e-15,-1.26802865083e-15,-3.14456577097e-15,-3.04400601947e-15,4.10774387595e-15,-1.9711879698e-15,-1.41258668174e-15,2.378522726e-15,-9.41675665396e-15,-8.28493090105e-16,-2.80259485324e-15,-8.37158575968e-15,8.27507397864e-15,-3.11214812601e-15,3.3708319881e-15,1.97931948609e-15,2.96872173112e-15,3.29292528575e-16,-2.21663101286e-15,-1.57249972592e-15,-1.55271303627e-15,-1.80747344175e-15,9.46481391526e-16,-5.10442382806e-16,-2.41443692296e-15,8.10278493607e-16,-1.32760556021e-16,-4.56449114616e-17,1.15062581858e-14,-1.38330644682e-15,-4.19111902301e-16,-1.82579645847e-16,-2.91617858333e-15,4.66571497149e-15,1.94045083821e-15,-8.3795275406e-16,-6.10882872065e-15,-1.01810649755e-15,1.98072894891e-15,1.48683081363e-16,-7.62966621305e-15,-1.09732101877e-14,-1.31887773272e-15,-2.66496893997e-15,3.50197301713e-16,4.91365845581e-15,-3.13942936318e-15,-2.47123556427e-16,8.40066948296e-16,-8.08543770131e-16,-2.13240883284e-15,-1.44925304396e-15,-5.05704419312e-15,5.42166138373e-15,4.67562186884e-15,4.43601318872e-16,1.00491988862e-15,2.82250351563e-15,3.48794615152e-15,1.32538294575e-15,-4.9950007238e-15,-2.84041995653e-15,-1.04386985167e-15,5.82319227018e-15,-2.77582861211e-15,3.16775414493e-15,3.49980461278e-16,6.43078255577e-15,1.73339532832e-15,9.01243055879e-18,-6.16607459536e-15,2.4370154332e-16,-2.14368453544e-15,2.85974586026e-15,-1.27103731186e-15,-8.55001833222e-16,-2.60718096418e-15,7.47015296843e-16,-9.8944290261e-16,2.29075656014e-15,5.8357181934e-17,-1.67942916518e-16,-1.04788139971e-16,-8.87094217528e-16,1.2476998601e-15,-2.14116376539e-16,-2.30506802881e-15,2.25682103214e-15,2.29029577421e-15,4.21041782168e-15,-1.07119174642e-15,-2.86199557976e-15,4.78442155685e-15,2.70844544709e-15,1.56667213924e-17,-5.5364783938e-16,6.53868777699e-16,-9.75975078749e-16,2.37562248519e-15,-5.93709109653e-16,-4.26091453787e-16,9.98550200859e-16,-3.68791368971e-16,-2.29915912697e-15,-1.47234655024e-16,-1.49091351244e-15,-1.39021823567e-15,2.61482458949e-15,-1.68764199664e-15,5.68772459686e-16,-2.32240848731e-15,-2.7789185883e-15,-2.40481462868e-15,2.92084065268e-15,1.48476066511e-15,6.2555754847e-16,2.34881558647e-15,-2.98123071368e-15,1.48232121022e-15,-5.43918480134e-15,1.08769872449e-15,4.17829833232e-15,-3.47920477151e-16,1.11585409966e-15,-1.80476293632e-15,2.14536504881e-16,-1.02202317789e-15,1.44545833636e-15,2.54597775154e-16,6.94675436966e-16,3.15787435264e-15,-2.57194439357e-15,-2.22055446947e-15,2.20396617623e-15,1.17291701525e-15,-2.54082779122e-16,1.05416977231e-15,-8.86267513371e-16,-3.25314861854e-16,-1.69268353674e-15,-3.33175327605e-16,5.8997945418e-15,-1.34441069388e-16,4.52112305926e-17,6.23307828962e-16,1.88976438664e-16,-4.61917559324e-16,5.58879114862e-16,1.0742275125e-15,1.24135727739e-15,1.35904742321e-15,-3.95489847468e-16,-6.2777338666e-16,-1.91578523878e-16,-1.17679303802e-15,-7.40984422258e-16,1.37151574819e-16,1.64588030772e-15,-9.2482445313e-17,-9.6385573134e-17,2.61088758035e-15,6.15935254189e-16,9.8177217224e-16,4.58400678527e-16,-1.64978978829e-15,9.24038406555e-16,-3.55550549939e-16,-4.42191856048e-15,-1.02478789343e-15,-3.84566510581e-16,3.7708551559e-16,-2.68882138776e-16,-1.02169791724e-15,8.25785972805e-16,-3.6488824115e-16,9.79264954716e-16,-7.26415455565e-17,6.15420258157e-16,1.13952358834e-15,1.86515299733e-15,5.84601811404e-16,3.58437238224e-16,-6.46943436322e-16,2.21944316224e-15,-1.00621686547e-14,4.73681152895e-16,-6.98932624559e-16,2.19355783537e-15,-3.13619030919e-15,-1.15719608375e-15,-4.02767554551e-16,-2.39142473185e-15,3.51660974646e-16,-4.49835481364e-16,3.93126286732e-15,2.00414771584e-15,1.50205368976e-15,-1.0472308784e-15,-5.96365404976e-16,4.81006293823e-16,-2.84355736657e-16,2.9096733703e-15,6.36101414597e-16,5.18817844589e-16,-1.14508012447e-15,1.43515841572e-15,-1.27513017506e-15,-1.02573995847e-15,-1.467738691e-16,3.6884557908e-16,1.31374810119e-16,1.60116840305e-15,-1.35355864971e-15,6.28999890367e-16,-1.68598858832e-15,8.65132347271e-16,-3.29597460436e-16,-7.60188353238e-16,1.96249063549e-16,3.39951591183e-16,-1.91170931624e-15,-6.51442875338e-16,-1.81327392337e-15,2.65250061499e-16,3.9443275035e-16,-1.85886462473e-16,2.7601076806e-16,-4.43452241074e-16,-1.72983101367e-15,-1.81839677864e-15,-2.97711074543e-15,8.2808651429e-16,-6.31005664387e-16,-1.11531877484e-15,1.25875872226e-15,1.42604434121e-15,5.69206140555e-18,7.82306077557e-16,1.16492102423e-15,5.03418785608e-16,-4.92492060588e-15,3.88415428293e-16,1.25198245868e-15,1.03346151081e-15,-1.8360963791e-15,1.16332182602e-15,7.34818022402e-16,-1.2997551169e-16,5.34999562013e-16,-1.19029135506e-15,-2.19259560594e-16,-1.14990482414e-15,2.31412111695e-15,1.71564151774e-15,1.0905989653e-15,1.89949510114e-15,-6.98226199081e-16,-1.24954300379e-17,1.73206718065e-15,-9.14793041936e-16,1.03406459827e-15,-2.92653271408e-16,6.78276879107e-16,-1.44063363669e-17,7.97322277646e-16,1.07417330239e-16,-6.04591788959e-16,-1.04419511232e-15,2.06425317378e-15,-2.85470432015e-16,-3.33073683651e-16,6.24527556406e-16,5.17164436276e-17,1.55168304421e-15,1.53832025243e-15,-2.29115635969e-16,-7.06899816461e-16,-4.09709158961e-15,-1.08971127477e-15,1.89534802783e-15,2.63759283511e-15,5.51777590632e-16,-2.62268505524e-16,-1.02782365952e-16,-8.89316831981e-16,-1.43548367637e-16,-2.03548115862e-15,1.51430517431e-15,-1.15304901044e-16,-1.54130180841e-15,-1.15181573047e-15,5.34081378298e-16,9.81948355093e-17,-3.41523684333e-17,-1.34630804768e-15,1.16361659349e-15,9.3230544812e-16,-4.57590915029e-16,1.23626152718e-16,4.63957214661e-16,-9.17777139009e-17,-1.35996221879e-16,-1.0334073007e-15,9.51387406356e-17,-4.45173412023e-16,2.91704594507e-16,2.61726404438e-16,1.95541282819e-15,4.71085843945e-16,7.55417863679e-16,-2.79816317686e-15,-4.58509098744e-16,6.21139424617e-16,1.00272437922e-15,-1.37124469765e-16,1.39596789532e-15,2.73167447863e-15,-5.61020414153e-16,9.38353263364e-16,-1.23479785424e-15,4.61382234501e-16,6.90013367624e-16,-6.35288262968e-16,-2.56684864336e-16,-5.8438497097e-17,-3.81896662731e-16,-8.11139079081e-16,1.53116451809e-15,-5.74030840222e-16,4.02455846427e-16,-1.40183952771e-16,-4.72664713359e-16,-6.69223790967e-16,-3.88489967192e-16,-1.65217757417e-15,-1.49110324782e-15,-4.54849916412e-16,-2.67750502759e-16,-7.95262293518e-17,-3.78223927872e-16,-2.24852688552e-15,6.67489067491e-16,-4.72400439079e-16,7.45856555771e-16,-1.46634278071e-15,-9.02869359137e-16,2.69424239863e-17,8.46883869456e-16,8.88666310678e-16,-2.22903835147e-15,-1.35568639648e-15,-1.49750004064e-15,7.24138631003e-16,8.16187395447e-16,4.74013189811e-16,5.39390580812e-16,2.35136346158e-17,7.10599656374e-16,1.28494220472e-15,-3.1799649719e-16,-3.84295460037e-16,-1.46730501013e-15,1.12793617762e-15,4.04841091206e-16,-1.2212995372e-15,4.78648154098e-16,6.706874639e-16,2.10037065865e-16,2.38781975963e-16,5.946306815e-16,-1.10478168497e-15,-2.81114141568e-16,-2.07509858363e-15,-6.11011451667e-16,3.63749828869e-17,1.66750294128e-16,-5.32397476799e-16,5.50286812645e-16,3.16539600521e-16,-1.27234513073e-15,-2.03857113482e-16,-4.04461620446e-16,-2.29259970383e-15,-5.59854896817e-17,1.08122061651e-16,-3.52148865623e-16,-3.66711056052e-16,2.03450537667e-16,3.06415862735e-15,3.80392332217e-16,-7.94720192432e-17,1.6839828143e-15,9.76885003893e-16,-5.02202446295e-16,-3.56516167499e-16,-6.83860520295e-17,2.08459551704e-15,-1.69189749016e-16,-2.61157198297e-16,4.16062583691e-16,1.04527931449e-15,-1.50933139684e-15,2.48797293531e-15,2.04057690883e-15,-5.22693867355e-16,-2.81977945767e-15,2.92355115811e-16,1.8719292609e-15,-3.45345496991e-16,5.32126426256e-16,-2.84863278799e-15,-2.07841556465e-16,3.57163300671e-16,1.20346441146e-16,-6.60279123044e-16,-3.26846297423e-16,2.16840434497e-16,4.94775661414e-16,1.02126423637e-15,-5.42643187329e-17,7.11507675694e-17,3.24799865822e-16,3.58274607898e-16,1.03595517581e-15,3.93470520922e-16,-8.40337998839e-16,-3.82838563368e-16,-5.2605489409e-16,3.86843335143e-16,1.17527515497e-16,-2.23291437423e-16,-1.7471104858e-15,-1.60421263946e-16,6.58042956063e-16,-2.38687108273e-16,1.76058169779e-15,-1.75249083908e-15,4.00002839011e-17,-1.4658413372e-16,6.13441589192e-16,1.55040910665e-16,6.40749931412e-16,3.23471718161e-16,-5.73705579571e-16,2.32095159064e-15,-7.59808882478e-16,6.03297522616e-16,-1.12854604134e-15,1.41043860619e-15,-1.77809156288e-17,6.59635378004e-16,1.51556555934e-15,-1.92863303453e-15,1.21213802884e-16,-1.04368011629e-15,-5.33014116785e-16,2.13994403794e-17,-5.7394952506e-16,6.51149378422e-16,5.66739580612e-16,3.53775168882e-16,-1.04836929068e-15,7.89217866407e-16,-3.92508291494e-16,6.36751935901e-16,7.21041878548e-16,-8.23451550003e-16,1.31052937599e-17,-2.37840075325e-16,-1.3042952135e-15,-7.57776003404e-16,1.00294121966e-15,-1.38676234124e-17,3.58111977572e-16,4.32911085452e-15,-7.29735824719e-16,-1.86246959695e-15,5.45516323086e-16,1.24215348836e-15,3.81259693955e-16,-5.24238855451e-16,-1.93313247354e-16,-4.50994222436e-16,-1.58637751373e-15,-7.97430697863e-16,-1.40241551011e-16,6.051609951e-16,5.86661795532e-16,2.49664655269e-16,-4.31783515192e-17,-9.41710901967e-16,4.43276058221e-16,1.66045562716e-16,-4.15899953365e-16,-1.78177785026e-15,-7.70108803116e-16,-1.38289987101e-15,-3.17671236538e-16,6.24066770483e-16,1.01535533453e-16,-6.46685938306e-16,5.04587691075e-16,-6.63911200321e-16,9.36005288034e-16,-1.14261356453e-16,-3.66297703974e-16,-2.30636907142e-16,5.37439016901e-16,1.82547119781e-15,3.70770037936e-16,2.22945847981e-15,-1.76724954115e-17,-1.40946282423e-17,-3.53653196138e-16,-3.41523684333e-18,-1.60006556615e-15,6.65795001596e-16,-4.26199874004e-16,3.73893895445e-16,8.29956763038e-17,5.73434529028e-16,-2.38741318381e-16,5.73597159353e-16,-5.44025545099e-16,-2.30094806056e-16,-7.76993486912e-16,1.01958372301e-15,2.47577566087e-16,7.69766601806e-15,-5.89440063599e-16,-1.09770048953e-15,2.17599376018e-16,-5.12285526499e-16,2.39066579033e-16,1.84544762284e-16,-6.59872547229e-17,8.28831903284e-16,-1.98896888542e-16,-2.78423117894e-16,-1.88156510771e-16,-9.96110745971e-16,-6.91449935503e-16,1.22016112492e-15,-1.47668335893e-16,-1.80302821284e-15,1.62624735455e-15,-2.16027282868e-16,5.3925505554e-16,7.57911528676e-16,-3.55672522684e-16,-6.73411521858e-16,9.90750721481e-16,-5.10117122154e-17,-4.17526256624e-16,-1.57534575662e-16,-7.52056836945e-16,-1.27502175484e-16,5.56764920626e-16,5.42101086243e-16,1.72122515893e-15,2.76227608495e-16,2.44907718237e-16,-5.61338898541e-16,-2.54200686108e-15,-4.14910618883e-17,2.60696412374e-16,-1.09629102671e-15,2.97613496347e-17,1.83663848019e-16,5.26183643098e-16,1.61112442831e-16,9.85837930387e-16,6.27482007326e-17,5.76361874893e-16,1.82444120575e-16,3.22550146314e-16,3.06381981417e-16,7.15139752971e-16,4.41202521566e-16,-3.11748782171e-16,2.00631612018e-16,1.57664679923e-15,-3.27700106634e-16,1.03920778233e-16,-1.35179682118e-16,-3.67517431418e-16,-4.11237884024e-16,6.11137659576e-16,1.93643929017e-15,-4.45485120147e-16,2.18466737756e-16,2.72785266597e-16,1.09049054509e-15,1.99555541362e-15,-3.16180458551e-16,-2.76146293332e-16,-1.24818775107e-16,-1.24938037346e-15,1.60109555822e-16,1.17310675063e-16,1.26298711073e-15,-9.00104643597e-16,-7.00921457919e-16,-8.10983225019e-17,-2.13282896119e-15,1.70455555053e-15,7.11588990857e-16,9.16828462108e-17,6.72286662104e-16,1.16721817758e-15,-5.47386571834e-17,8.87961579266e-17,-5.94576471391e-16,-9.15134396214e-18,-2.51209643365e-15,2.34377404637e-16,4.28259858132e-17,1.69127068578e-16,-1.17795177909e-16,-3.45880821814e-16,-1.3993661915e-16,-1.21499761207e-15,-2.82434665932e-16,-6.89010480615e-17,1.90169061054e-16,1.44867028529e-15,-9.36655809337e-16,1.40153459584e-16,8.41964302098e-16,-2.65629532259e-18,-8.04139198805e-16,-3.28784308806e-16,4.87565716967e-16,-7.85694209346e-16,-6.3637246514e-16,-3.61242611345e-16,-2.17225326268e-15,2.72568426163e-16,3.928606572e-16,5.96587666421e-15,2.37548695992e-16,3.79362340153e-16,3.74551193012e-16,9.16437132886e-16,-2.64985787219e-17,1.29952472394e-15,9.124577721e-17,-1.84097528888e-16,1.12919656264e-16,-2.1358782798e-16,1.57100894793e-16,5.01443504775e-17,4.93962509784e-16,1.00998853378e-15,-1.08420217249e-16,1.34441069388e-16,1.85595083139e-16,1.27344966169e-15,-2.78070752188e-16,-4.55419122553e-16,1.55420381426e-16,1.54184390949e-15,4.95046711957e-16,-9.63747311122e-16,1.74591786341e-15,-2.99402429932e-16,-5.09087130091e-16,9.09943778313e-16,-2.60452466885e-16,-2.39811968027e-16,1.60204423512e-15,-8.50719234641e-16,5.77863494902e-15,3.74917111245e-16,2.46601784132e-16,6.54207590878e-16,8.50665024532e-16,1.04462879319e-15,-7.14760282211e-17,-2.13452302708e-16,7.15736064166e-16,-4.2202569564e-16,1.09103264617e-15,-1.08279270966e-15,7.81018587477e-16,-4.34812505012e-16,-1.38777878078e-16,-3.54588320511e-16,-7.80896614733e-17,-2.88994089076e-16,7.17416577534e-16,-1.68609700854e-15,-7.83708764118e-17,1.36372304508e-16,-4.08012382561e-16,-6.4228136698e-16,8.01550666119e-16,-7.71979051864e-16,1.70661045246e-16,4.36025456192e-16,3.04660810468e-17,-3.74646060702e-16,6.62366212226e-16,-6.65591713689e-16,4.0348583849e-16,2.57945249361e-16,-1.69691192521e-15,1.26575182627e-15,7.60459403781e-16,4.16794420158e-16,-5.56520975137e-16,-6.8767555669e-16,-1.83251851193e-15,5.00265281945e-16,-7.95479133953e-16,9.02801596502e-17,2.20228566286e-18,-6.08562679416e-16,1.99547409846e-16,-4.37380708908e-16,5.58255698613e-16,-4.58400678527e-16,6.41739265894e-16,-1.03974988341e-16,-6.44246483418e-16,-7.95506239007e-16,-1.84314369323e-17,3.60768272895e-16,-4.46779386491e-16,1.5277763863e-16,2.79642845338e-16,-3.43095777483e-16,7.83119229186e-16,1.49565689694e-16,-1.64229524077e-16,4.34765071167e-17,-6.64209355919e-17,-1.54954174492e-15,2.48824398585e-17,1.01481323345e-16,6.95678323975e-16,-6.64615931734e-16,8.55435514091e-17,-4.59281592792e-16,-1.88081971872e-15,-2.77379573303e-16,-1.42084694704e-16,1.2785454119e-15,4.90018724382e-16,-1.81452075587e-15,-3.88130825223e-16,-1.33411077324e-15,-1.15155823245e-16,9.7605300578e-16,-2.30746004986e-15,7.96617546234e-17,-5.51154174383e-16,-8.44024286226e-16,-2.52835946624e-16,6.94753363997e-16,-6.72042716615e-16,9.87464233645e-16,-4.70001641772e-16,3.13578373337e-16,-6.87709438008e-16,1.79446301568e-15,-5.10659223241e-16,-1.0798653638e-15,7.92280737544e-17,-1.85252204202e-15,-7.80191883321e-16,5.53918889923e-16,1.60732972071e-15,1.86862244428e-16,5.27464356914e-16,1.93394562517e-16,-5.25187532352e-16,-7.84582902119e-16,-2.49366499672e-17,-1.88109076926e-17,-2.51751744451e-16,4.4452831173e-15,-6.3432603354e-16,1.96576695893e-15,-3.41577894442e-16,1.20961725879e-15,-1.31898615294e-15,4.64038529824e-17,-6.29541991454e-16,4.79922091651e-16,-7.21129969974e-16,-1.76508113681e-16,-2.54679090317e-16,3.08157362475e-16,-3.10623922417e-16,-6.12086336477e-16,-2.01787642585e-15,-6.25665968687e-16,1.07910642227e-15,-2.3075074837e-15,1.1427490898e-16,1.1490374624e-15,-1.74434577026e-16,-4.62642619527e-16,-1.63362162339e-16,1.52764086103e-16,1.35290812841e-15,1.7103289271e-16,-5.54162835412e-17,-7.02020906684e-17,3.93890649264e-16,3.60497222351e-16,-5.49117483661e-16,4.65610622974e-16,-4.83391538603e-16,6.43745039913e-18,1.98680048108e-16,1.96742036725e-16,5.77879757935e-16,5.18248638448e-17,-1.66804504237e-16,6.09945037186e-16,-1.30781887056e-16,-1.16421629281e-15,-2.13479407762e-16,-2.36193443276e-16,-1.37205784928e-16,-6.66269340047e-16,7.62627808126e-16,8.56953397133e-16,-7.26849136434e-16,1.08254876417e-15,2.92273800648e-16,-1.09856785127e-16,1.43961719715e-16,-1.58720082975e-15,3.67097303076e-16,-1.29453739395e-16,3.57027775399e-16,-3.30952713151e-16,-9.94647073038e-16,-3.85352557156e-16,1.13937451054e-15,-1.29399529286e-16,-3.33663218582e-16,-2.651009837e-16,1.79218619112e-16,1.53696499972e-15,9.03411460224e-16,-1.10122414659e-15,7.37691158159e-16,7.56312330472e-16,-3.69184392258e-16,-2.54604551417e-16,1.9152431377e-16,2.65856537089e-16,-1.59995714594e-15,-1.20780122015e-16,8.6730752788e-16,-1.16822784085e-17,-1.96110488959e-15,1.01047642476e-16,-2.97084947788e-16,-4.32894822419e-16,4.15845743257e-16,-7.26903346543e-16,-6.87492597573e-16,2.84006759083e-16,-7.00001580138e-16,3.79579180587e-16,-2.64084544163e-15,6.37619297639e-16,5.93783648552e-16,3.66351914083e-16,5.32018006039e-16,9.41663468122e-17,6.69820102162e-16,1.53859130297e-15,-1.08761740933e-15,-2.03287907341e-17,7.27669064327e-17,-4.27148550905e-16,2.17724736894e-16,-7.64701344781e-17,-5.06213994333e-16,-4.17959937493e-16,-1.40621021771e-16,4.23814629225e-16,-2.55004350969e-15,5.5717149644e-16,4.68646389057e-16,8.81212420742e-16,-1.34191702889e-15,4.04136359794e-16,4.69080069926e-16,-3.69536757965e-16,4.43770725462e-16,7.5026790336e-17,2.11592218356e-16,-1.21940218339e-15,4.82036285887e-16,2.29850860567e-17,4.02767554551e-16,-1.00494699368e-15,7.43572954945e-16,-1.69487904614e-16,6.79171345899e-16,-2.1358782798e-16,3.31657444563e-16,-2.27574036005e-16,-1.54002109459e-15,1.07010754424e-16,-3.48218632748e-16,1.05459328878e-15,1.94261924255e-16,-1.22872632208e-15,-1.7889335846e-18,-5.58526749156e-16,-7.08417699502e-16,-4.56032374406e-16,-2.32009100517e-16,-1.45961225691e-15,2.65439796879e-16,4.61016316268e-16,-8.36678816507e-16,7.88553792576e-17,-4.41920805505e-16,1.1861171767e-16,6.2832226401e-16,5.58770694645e-17,-4.28747749109e-16,1.51544358659e-16,3.77464986351e-16,5.2209755616e-16,-1.22471477404e-15,1.09504419421e-17,-6.93658997429e-16,-6.20729884187e-16,2.99348219823e-16,2.13723353251e-15,2.57064335096e-16,5.97137899024e-16,6.51812181703e-16,4.54009659728e-16,4.50648632994e-16,1.419329064e-15,2.93114057331e-16,1.27990066462e-16,-5.98547361848e-17,8.1884369077e-16,-8.92162862684e-16,-1.48622433804e-15,-5.00616800618e-16,1.65861671863e-15,-4.81141819095e-16,-1.00200609528e-15,-1.79220313178e-15,2.03938428645e-16,6.80011602583e-16,7.31999096754e-16,1.28872674793e-16,-1.66750294128e-16,1.35171550602e-15,-4.73904769593e-16,2.42088792589e-16,9.70903045461e-16,-1.024571053e-16,2.12980674763e-15,-1.85371466441e-16,9.25908655303e-17,8.45406643996e-16,1.1980434006e-17,4.40158976975e-16,-1.06034972469e-15,-1.19262238973e-17,4.13785759129e-16,-1.8091946127e-15,-1.51517253605e-16,-5.82324986842e-16,1.39210203694e-15,-1.09829680073e-16,2.44623115167e-17,1.26225527426e-15,-1.11239142897e-16,-2.28983498829e-16,-4.33396265924e-16,-1.35925071112e-16,1.49446427455e-15,-7.42007638058e-16,-6.23362039071e-16,2.08763128312e-16,7.72494047896e-17,4.00506993022e-15,-9.5298660456e-16,-6.9055546871e-16,-5.69477191098e-16,4.22506810354e-16,9.51387406356e-16,1.80546766773e-16,-2.19696629595e-16,-1.03702921359e-15,3.73968434345e-16,1.95129285993e-16,2.52537791026e-15,-5.01172454231e-17,-1.99276359303e-16,-1.0352504444e-15,-1.15136849707e-15,5.48972217511e-16,2.30935062739e-16,-4.44159090068e-16,-1.26539946056e-15,-5.47630517322e-16,3.43583668461e-16,-5.25539898058e-16,-1.00315806009e-15,-1.2289634913e-15,-3.99311660126e-16,5.12312631554e-16,1.05709711817e-16,5.17652327253e-16,5.30852488703e-16,-1.37287100091e-16,-1.27292111313e-17,-4.73687929159e-16,5.11865398158e-16,-5.40339257712e-16,-3.46944695195e-18,1.21735575179e-15,5.69206140555e-17,2.16027282868e-15,-3.80798908031e-16,-1.4815622687e-16,2.39933940771e-16,-9.5361002081e-16,4.37475576598e-16,1.64911216193e-15,1.70443357778e-16,-1.20075390603e-17,5.32560107125e-16,-4.75097391983e-16,2.73910126351e-16,4.84801001427e-16,-9.9902453931e-17,-1.48691551693e-15,-1.33557444618e-15,-7.52327887488e-16,-1.52059354691e-17,5.24889376755e-17,7.26957556652e-17,1.17966617377e-15,4.59972771677e-17,-8.23166946932e-16,3.34991366244e-16,-3.34069794397e-16,-1.14451091833e-16,-5.38177629631e-16,2.47767301467e-16,-5.96168893332e-16,6.20055222444e-16,7.63169909213e-16,-6.89837184771e-16,-2.47740196413e-17,-1.17241557174e-15,4.58617518961e-17,7.9992436286e-16,-1.88095524399e-16,-9.76837358289e-16,-1.12214924852e-16,-2.88397777881e-16,2.53269627493e-16,6.01081684426e-16,3.2629064381e-16,1.77895892461e-15,5.185738991e-16,2.58282368474e-16,-3.56241728824e-16,-8.99532049325e-17,-1.39862080251e-17,-3.04310985861e-16,9.4217168789e-16,-6.72205346941e-16,9.62012587646e-16,5.05516039185e-16,-2.85904112884e-16,2.5690170477e-16,-5.33427468863e-17,8.89310055718e-16,5.71808225769e-16,-1.82824268962e-15,4.38126097901e-16,1.47308685703e-15,5.85523383251e-16,3.49716186999e-16,-6.43799250022e-16,2.2163802911e-16,-2.24429849704e-16,1.50378841324e-15,-7.00503023643e-16,-5.60722258555e-16,1.39989474006e-15,-4.23950154496e-16,-5.67905097948e-16,-8.83624770576e-17,9.62751200376e-16,-3.58556500463e-15,-4.92925741457e-16,-1.77533701173e-15,-1.49132008825e-16,-7.23759160243e-16,-7.5460471205e-16,-1.11672823766e-17,-9.43797991149e-16,8.21771036635e-16,5.99021700298e-17,-3.64278377428e-16,-1.60036710988e-16,2.64464014924e-16,-8.7007224342e-17,-1.90421476872e-16,-2.74032099096e-17,3.24826970877e-16,4.61544864827e-16,-1.09921837257e-15,3.4043948216e-17,-2.70394600807e-15,-1.05276030948e-16,-4.07117915768e-16,-4.62086965913e-16,1.24168253804e-16,-7.71518265941e-16,-1.12448028319e-15,-8.32125167383e-17,-2.24971950791e-17,-8.55435514091e-17,-4.37367156381e-16,-7.96292285582e-16,-5.78909749999e-16,-2.10579166951e-16,8.73744978279e-16,-9.31058615622e-17,3.28994372977e-16,-1.07661275728e-16,3.10190241548e-16,1.35091590692e-16,1.59946925496e-16,6.16938141199e-16,6.6875622878e-16,7.64579372037e-16,-3.64210614792e-16,-9.70062788777e-16,-1.4347518399e-15,4.34656650949e-16,-1.22959368382e-15,-3.67110855604e-16,5.63107503335e-16,-1.71092523829e-15,-3.05189359028e-16,3.80094176619e-16,5.24753851483e-17,8.25077853261e-17,-6.63626597251e-16,-8.61859411963e-16,-6.22359152061e-16,1.28011750505e-15,-2.48499137934e-16,1.14323698078e-15,-8.1450688208e-17,-1.01215693812e-15,1.59833084268e-15,-2.0686577451e-16,1.20700500918e-16,8.68310414889e-16,-8.08132959152e-17,-3.08984066631e-16,5.44838696728e-16,1.43429105398e-15,-8.70722764723e-16,-4.09936841417e-16,8.96309935994e-16,2.37169225231e-18,4.04610698244e-17,2.45598897122e-16,-6.33807649376e-16,8.34564622271e-17,-2.40963932835e-17,-2.43999698918e-16,3.34469593948e-16,2.30067701001e-16,1.51312610445e-15,3.93836439155e-17,-3.19893850992e-16,-1.34621995626e-15,-6.00512478285e-16,3.39504357787e-16,-2.75712612463e-16,2.57443805857e-16,6.13509351828e-16,1.76562323789e-16,-2.36464493819e-15,-2.19415414657e-16,3.28970656055e-16,8.04125646278e-16,-2.68665298342e-16,4.52491776687e-16,7.21970226658e-16,8.20910451161e-17,-8.71264865809e-16,-9.29703362906e-18,-1.04929086253e-15,4.08039487615e-16,4.55852803422e-16,1.13364179155e-15,7.89841282656e-17,-1.28949585385e-15,-5.7747318212e-16,9.79170087026e-16,-8.50607426292e-16,1.45852297254e-16,-2.27899296656e-16,3.91546062066e-16,4.43601318872e-16,-4.53467558642e-16,-4.44034999741e-16,1.27284657423e-15,-3.30302191848e-16,1.87924762557e-15,3.7346699084e-16,4.36840301887e-16,-8.08028774099e-16,4.69025859817e-16,-6.5214760675e-16,4.89229289675e-16,-1.01267193416e-15,-2.52808841569e-16,2.24971950791e-16,-1.056012916e-15,1.1087491873e-15,1.73212139076e-15,3.06287113727e-16,-7.54496291833e-16,2.82326245715e-16,-1.61220863049e-15,2.78531538112e-16,8.9001478713e-16,1.93502982734e-16,-1.42653900845e-16,-1.20834332124e-15,-2.67689516387e-16,7.32053306862e-16,-3.61960895284e-16,-8.07757723556e-16,-1.54796965177e-16,-4.08500273538e-16,-7.77915058758e-17,3.30559689864e-16,-3.35953595672e-16,1.17909696763e-15,-8.83624770576e-18,6.27969898304e-16,8.43075609325e-16,-1.52501167076e-15,1.34685014877e-15,5.62836452792e-17,-4.393729304e-16,-8.7912533156e-16,2.56739074445e-16,5.24211750397e-16,6.87357072301e-16,-1.20671701798e-16,1.49029009619e-15,8.97014667406e-16,-4.02130585775e-16,6.22670860186e-17,-1.39992184511e-15,-4.60189612111e-16,-2.38361847621e-16,5.13071573074e-16,1.6531372625e-15,6.7301849857e-16,-1.60391448387e-15,2.79127849306e-16,-1.58825453874e-16,-5.93207666148e-16,-1.09377703292e-15,-5.00467722819e-16,-4.20751758087e-16,-3.1523178165e-17,1.92391675508e-16,-1.62654720422e-15,-9.0728748299e-16,2.72156429337e-15,-2.48390717716e-16,-4.46345705622e-16,1.28757139499e-15,4.11942615436e-16,1.28640587765e-16,-2.35719104826e-16,1.09794443502e-15,1.17635935715e-17,-5.50056419683e-16,4.192609801e-16,8.38765905689e-16,-1.02679366745e-15,-7.39488562073e-16,6.07939263167e-16,1.36322160157e-15,4.51082313863e-16,2.18030685195e-15,2.39798415499e-15,2.80808362674e-16,7.1123662515e-17,-4.39020564694e-16,-2.51450200722e-16,-4.75381995053e-16,-9.92505773748e-16,-1.97460320664e-16,2.21556713947e-16,-2.30392961653e-17,4.14626015813e-16,5.09575021068e-18,-8.60639684519e-16,-1.75288386237e-15,7.37907998594e-16,3.18647018493e-16,-1.70761842166e-16,-8.19744933826e-16,-6.01786415838e-16,4.10743216783e-16,4.75083839456e-16,4.29777741173e-16,4.35252962144e-16,6.78331089216e-16,6.61038064564e-15,1.22991894447e-15,3.37417268605e-16,-8.16837916751e-16,1.35796322104e-17,-1.67335763301e-15,1.24759143988e-15,-3.42282625854e-16,2.82529533623e-16,5.11147114218e-16,5.88796318559e-16,-1.51446780464e-15,5.17923377796e-16,-1.99222149194e-16,-3.82181265801e-16,2.56847494662e-16,3.83376852806e-16,-6.08264523819e-16,-1.76074432812e-16,-3.7947076037e-19,-4.81467079747e-16,-7.82356899534e-16,-1.50525208617e-15,5.24265960505e-16,7.35793804357e-16,-5.6584511382e-16,4.26023691151e-16,-8.47602153395e-16,5.57822017744e-16,6.5214760675e-17,1.70897367438e-16,-5.68711473314e-16,-7.00055790247e-17,-2.85375564325e-16,-1.12061103669e-15,1.3483138217e-15,5.14996031931e-17,1.66641873911e-16,-6.15284732886e-18,1.54932490448e-16,-4.95805653478e-16,-5.68365883871e-16,5.12827627586e-17,1.95671387079e-16,4.83012067842e-17,1.12052294526e-15,-1.05563344524e-15,5.60559628229e-16,6.47973428386e-16,-1.38582721687e-15,-8.02309607639e-17,-2.53182891319e-15,-5.28711189413e-16,2.3693883227e-16,8.86748628085e-16,1.40984229499e-15,3.72694496792e-16,-1.22775054012e-15,6.69250896021e-16,-2.37352184348e-16,-2.2069477322e-15,-8.12067427192e-17,-1.4273115025e-15,6.22960884267e-15,6.77030046609e-16,2.74181176894e-16,3.11057603286e-16,3.1089497296e-17,1.30662624817e-15,-9.39400196086e-16,3.78251032926e-16,-9.70520186569e-16,8.31640664537e-16,1.03656503953e-15,2.00317871015e-15,-4.00910858331e-16,1.73591609837e-15,4.14559947243e-16,1.46931078415e-15,-1.35362641235e-16,3.35736755237e-16,-4.44062104796e-16,-7.49834222491e-16,-4.94457177026e-16,1.85981330163e-16,-3.42119995528e-16,7.67344087577e-16,-8.11386412702e-16,-2.85524642124e-16,2.36003707896e-16,-2.9436088983e-16,1.30326522144e-15,-2.76800202767e-16,8.01753954026e-16,1.33985704476e-15,2.00757650521e-15,-6.32509994901e-16,-7.27608077955e-16,1.23805046076e-15,-1.20519913493e-15,8.7674008678e-16,2.93466423038e-16,-3.19632964844e-16,-5.49798921667e-16,9.72963029588e-16,3.55130421598e-16,1.73418137489e-16,-9.36425416376e-16,-4.07117915768e-17,1.67970021572e-15,-4.78692199811e-17,-2.54895930751e-16,-8.57492110087e-16,5.03124018142e-16,-6.38378239159e-16,-8.48320437334e-16,9.75714192601e-17,1.49011730147e-15,-7.09935582544e-16,4.54931231575e-16,-6.08237418764e-16,8.72782748851e-16,-8.51098705401e-17,4.13758654075e-16,-8.48808328312e-16,1.38609826741e-15,-1.62699443761e-15,7.15627643949e-16,-1.19424869299e-16,-5.34376145764e-17,-1.28822191629e-15,8.90197746246e-17,-9.24092616664e-16,-5.06241099388e-16,1.02261948909e-15,2.69857920732e-16,2.6953266008e-16,-6.9117888496e-18,-5.15538133017e-17,3.4992625117e-16,1.15711476859e-16,1.90830424379e-15,-8.24210491523e-16,8.75628779554e-16,5.37439016901e-16,-6.00648003557e-17,-4.3117365147e-16,-1.26081870638e-15,2.47577566087e-16,-1.34321807149e-15,1.26539946056e-16,1.39932553392e-15,-1.393877418e-16,-4.13108132771e-16,2.82434665932e-16,8.27998422864e-16,2.84013535346e-16,-9.01703841802e-16,-6.60983854456e-16,1.14770253848e-15,-3.28648783535e-17,-3.34747420755e-16,-2.28116137091e-16,-6.49545521536e-16,-4.82469966756e-18,-8.06754836546e-16,-7.65880414644e-16,-8.06510891058e-16,4.55635962987e-17,5.9786973549e-17,-1.95080496895e-15,-1.18361673544e-15,4.53603083914e-16,-8.10441123933e-17,-4.37475576598e-16,4.93311988481e-16,-4.10746604914e-16,7.1629171778e-16,1.15509459501e-16,1.36812761641e-16,6.92988147335e-16,8.11498221051e-16,-1.67238185106e-17,-7.0771296809e-16,-1.95102180939e-16,-1.53577237733e-15,3.80798908031e-16,-3.90204361878e-16,4.33572448777e-16,-1.48210436979e-15,1.43916996376e-15,8.91837602032e-16,-4.37638206924e-16,4.8117434516e-15,7.4416926614e-16,9.71507826985e-16,5.4830814368e-16,8.54757887733e-16,-1.02435421256e-15,9.08810448229e-16,4.69839011447e-16,-6.93198211506e-16,-6.71337985203e-16,4.43655528981e-16,7.74814240545e-15,3.12699491951e-15,2.46547574023e-16,1.18050643046e-15,-1.45854330133e-15,2.01965180691e-15,-5.80021057225e-16,1.48727127077e-16,-2.62868204851e-16,1.29887420264e-16,-3.78650832477e-16,2.77433783412e-16,-1.14613722159e-15,4.67236926233e-16,2.49718865378e-16,1.73838265831e-16,1.01955661795e-15,-3.37186875643e-17,4.68944544654e-16,2.80015539835e-16,-5.34321935655e-16,1.29410371308e-15,1.53439001956e-15,1.90839911148e-16,-1.13014523954e-16,1.05969920339e-15,-1.29636698511e-16,8.4893707732e-16,-6.78114248781e-16,5.016061351e-16,-6.81583695733e-16,1.257132419e-16,-6.39245600897e-16,8.69855402985e-16,-3.05772117695e-16,-2.72687857808e-16,-4.68497311258e-16,3.54534110403e-17,-6.35125632642e-16,7.68970390835e-17,-7.98623320253e-16,3.00567100234e-16,-6.07342951972e-16,1.16443313325e-16,-8.23810691972e-16,-9.29323892146e-16,-4.15859295784e-16,-3.12216344358e-17,1.06197602795e-16,-3.95733792957e-17,8.22801028699e-16,1.1694475683e-16,2.05266576306e-16,5.2033572763e-16,-2.47685986304e-16,-2.49312289563e-16,7.12158196997e-16,-8.02201187422e-16,1.3859898472e-15,-4.63133898636e-16,-1.24357989184e-15,-6.80055648296e-16,2.35922392733e-16,-5.4291084974e-16,1.59160878921e-16,-5.95037257314e-16,-1.43765208072e-16,-8.50610814424e-16,-1.62380959373e-15,5.18357058665e-16,-2.57003348724e-16,1.46218893113e-15,-6.62596605187e-16,-3.92155925788e-16,-8.58146019522e-17,-1.06929269855e-15,9.42930629411e-16,-1.20876344958e-15,-6.81583695733e-16,7.44521631846e-16,4.20955045995e-16,-6.01732205729e-18,-5.4773893754e-16,5.09846071611e-17,5.30757621013e-16,9.19538967539e-16,-6.57297567069e-17,1.57399050391e-16,-8.83922926173e-16,1.94072188875e-17,5.25499240477e-16,-1.64942090544e-16,-9.88358700438e-16,-5.38618086764e-16,-7.59537831935e-16,5.36165079348e-16,-2.85958322993e-16,8.86636819736e-16,-3.29073994074e-16,-3.13768108717e-16,-1.57396339885e-15,1.97107954958e-16,-1.16765863471e-15,-1.79055988786e-16,1.52514719604e-15,1.18965438629e-15,1.77809156288e-17,1.28445431374e-15,-1.03871989135e-15,-2.15322551456e-16,-8.09682182412e-16,5.154297128e-16,-4.2045360249e-16,6.44341351108e-16,3.57759611866e-16,-1.03546728483e-15,2.19903305634e-16,4.99573256027e-16,-2.94035629178e-16,1.02462526311e-15,1.07951977435e-15,7.23596529917e-16,-3.83018134353e-16,-1.07292646989e-15,4.01273388432e-16,-6.97955148538e-17,2.67323598153e-16,2.61485847081e-15,-1.14220698871e-16,-5.74505178673e-16,3.53368593067e-16,-7.08742960154e-16,2.34160564203e-16,-1.53108320293e-15,8.10983225019e-17,-1.11878652772e-16,-1.80428182161e-16,1.35622849756e-15,9.34853323226e-17,2.0023960517e-15,3.02058725254e-16,4.06358974248e-16,-4.35198752036e-16,-6.74102700743e-17,-4.35361382362e-16,1.17527515497e-15,-4.53521768751e-16,-5.92313199356e-17,-2.407470924e-16,2.8739150274e-16,-7.14232580685e-16,-7.18012888729e-17,-3.55076211489e-16,-6.13658429627e-17,-6.83101578774e-16,-2.58866821208e-16,-1.54336179253e-16,-2.44108119135e-16,-3.75025531463e-16,4.7878367937e-16,-1.98612285472e-16,1.82471225629e-16,8.28554076477e-16,-7.50972634772e-16,7.4197375674e-16,1.09561340035e-15,-1.20780122015e-15,-9.53528705647e-16,-6.34847805835e-16,2.56291841048e-16,6.62989628475e-17,-1.5645037349e-16,4.07660016855e-16,-3.28675888589e-16,6.23443354233e-16,4.11237884024e-16,5.4931103069e-16,-2.0186489199e-16,1.01481323345e-15,-4.29953924026e-16,-1.55913693414e-15,-1.00830802041e-16,-3.18972279145e-16,2.376029061e-16,-6.69006950532e-16,-6.10270297838e-16,-1.51664298524e-15,-6.22955463256e-16,1.16985414411e-16,5.35116791373e-15,-8.28411774942e-16,-6.42118736655e-17,-2.33211887302e-16,7.70163013225e-16,1.7889335846e-17,3.74049749507e-17,3.13334427848e-17,1.81929124543e-16,7.34445327905e-16,-7.39879891295e-16,-6.68430968128e-16,1.73580767815e-16,-1.24629039727e-15,-8.796945377e-16,-4.27771967154e-16,-1.06295011584e-16,7.67398297685e-16,-6.33716169818e-17,-8.82432148186e-16,-3.59480782815e-16,-4.42583524083e-15,1.97880449006e-16,1.37016049548e-15,6.95380168378e-16,8.79985917034e-16,-1.16551733542e-16,-2.2430787696e-16,-4.40267397192e-16,-2.27682456222e-17,-4.90926743701e-16,-1.50866732301e-16,-6.0682795594e-16,-9.31316113638e-16,1.49565689694e-16,-1.52265353104e-15,3.69929781252e-16,2.00176247106e-15,-7.22349697418e-17,6.25584653524e-17,3.15258886704e-16,4.0549161251e-17,3.98024170047e-16,-1.13255758938e-15,-1.89159397781e-17,1.2313826174e-16,1.15701312463e-16,-1.06964675832e-15,9.5713367787e-16,7.16268424374e-16,1.65151095924e-15,6.90419943439e-16,-2.143467695e-16,-2.91054073204e-16,-3.3765443783e-16,5.58201488504e-16,8.11267828089e-16,5.09791861503e-16,-1.12724499873e-15,7.61489395845e-16,-6.20597323531e-16,8.70614344506e-16,5.4604216114e-15,9.11488766409e-16,8.03441243657e-16,-8.65843854947e-16,8.81212420742e-16,3.24501710225e-16,-2.44487589895e-17,-1.05384451166e-16,-3.61310373981e-16,3.4992625117e-16,6.75573149939e-16,-1.04191828776e-15,-4.16062583691e-17,3.00061082752e-15,-4.25224092049e-16,-9.6385573134e-17,9.11439214981e-17,-6.64615931734e-16,-5.2881960963e-17,1.32717187934e-15,6.50467093383e-16,3.93836439155e-16,4.57729828433e-16,-5.37791382607e-16,1.95386784009e-16,6.63477519453e-16,6.89552581701e-17,-1.25387981248e-15,-7.08458357083e-17,1.92608515942e-16,-2.51534904017e-16,-5.46708945476e-16,8.94331267029e-16,5.63785129692e-17,-3.09282222229e-16,5.62639941148e-16,5.09846071611e-17,-2.37738431372e-15,-1.77592315853e-16,-5.12881837694e-16,6.76460840468e-16,-1.4268642691e-15,9.80186526563e-16,1.59269299138e-16,-4.1454470065e-16,1.96083383905e-15,-1.00192478012e-15,2.39608680119e-17,8.78474810256e-17,-2.89807240705e-16,2.93818788744e-16,-3.63004439875e-16,-9.73993021652e-16,1.21810114079e-16,1.95373231482e-16,-1.11998084418e-16,4.30753523128e-16,4.56611744942e-16,-2.30711446041e-16,1.47451495458e-16,-9.27263908018e-17,-6.58544399568e-16,1.4934884926e-16,-6.98551459732e-16,-2.99205918288e-16,-1.68419965474e-15,-7.02102221847e-16,-4.17011260592e-16,3.28691135182e-16,-7.35089072945e-17,-1.82315371567e-16,-3.47801892538e-16,-4.94463953289e-16,7.50728689283e-16,-8.76811237548e-16,2.77946068938e-15,-1.33617075737e-15,-1.98408997565e-16,-1.08796977503e-15,4.51787045275e-16,-7.79771754979e-16,4.45688408054e-16,1.54824070231e-16,4.11278541605e-16,-1.04614667623e-15,5.79722901628e-16,-3.24176449573e-17,-8.64363241355e-17,-1.70545001732e-16,-2.25703787257e-16,-9.32793339098e-16,-6.59194920871e-16,-1.94099293929e-16,5.54298360683e-18,1.94099293929e-15,-3.19893850992e-16,-4.58210943147e-16,1.92716936159e-17,-1.92838908904e-16,-2.85362011798e-16,4.43963848974e-16,-2.80049421153e-16,1.75030888221e-16,-6.31059874495e-16,1.38181566883e-16,3.33134670023e-16,1.44610885766e-15,2.3622054833e-17,-4.48534438757e-16,6.19892592119e-17,-1.17709119361e-15,1.54946042975e-16,7.53141039117e-16,-5.4692578591e-16,8.91661419179e-16,-3.47812056933e-16,2.97342445804e-16,3.59629860613e-16,-4.64038529824e-17,3.90068836606e-16,5.37798158871e-16,2.95878772871e-16,2.48200982336e-16,2.71355474982e-16,-4.58183838092e-16,1.72293277735e-16,6.10378718055e-16,2.07841556465e-16,5.9739539704e-16,1.59366877334e-15,1.16459576358e-15,-1.0635481211e-15,4.16442054452e-16,2.82326245715e-16,-1.34224228954e-15,-6.69616814254e-16,2.83139397345e-16,-9.01534435212e-16,-8.64054921362e-16,5.54447438482e-16,8.5096318013e-17,5.84737336676e-16,9.90689735109e-17,9.33064389641e-16,3.08347097855e-16,2.30243883854e-16,2.9316826744e-16,-6.17314647344e-16,1.2974105297e-15,-4.84638371101e-16,-7.77766827993e-16,-1.28196064875e-15,7.40564293916e-16,-5.12068686065e-16,6.70579043682e-17,-4.91550159951e-16,2.40042360988e-16,-1.20655438765e-15,8.32111614855e-16,-1.52330405234e-17,-1.2186567944e-15,5.3668007538e-17,-4.25420603693e-16,-5.01497714883e-16,-6.90148892896e-16,-4.1316234288e-16,-5.42372136786e-17,-9.82829269358e-17,2.10524956842e-15,-4.22567796726e-16,4.23109897812e-17,-1.38495985513e-15,3.60561596855e-16,-1.65069780761e-16,-3.86247023948e-16,7.53737350312e-16,5.09683441285e-16,1.88732493175e-16,-1.33076329904e-15,-1.89952220619e-16,1.00878235886e-16,1.23040683545e-15,5.53539419162e-15,-1.28521325526e-15,-2.26544043941e-16,-2.00584178173e-16,-3.06449744053e-16,1.57339419271e-15,3.03766343676e-16,6.36575753048e-16,4.34358495352e-16,2.70833702687e-16,8.80914265144e-18,3.72723295912e-16,-4.69639852825e-16,1.38105672731e-15,-9.32007292523e-16,2.62197354757e-16,3.83265467974e-17,-1.58548304693e-15,-7.20452343617e-16,-1.79299934275e-16,1.09433268653e-15,-1.42843636225e-17,-3.74049749507e-17,-3.72342131086e-16,-6.59032290545e-16,-9.00294378978e-16,-1.98300577348e-16,-4.60406452546e-16,-1.60895602397e-16,-5.43605416757e-16,6.78439509433e-17,-4.05377263062e-16,1.46302241155e-15,4.0310636773e-16,1.08013641434e-15,2.60642202266e-16,5.30283282563e-16,-2.55803950071e-17,-1.06940281283e-15,-1.35674349359e-15,-3.68437309199e-16,-5.90619133461e-16,-3.12792326762e-16,2.42861286637e-16,1.288574282e-16,2.90864337824e-16,-5.22531237029e-16,1.50378841324e-16,-5.52943107968e-18,-3.75594737603e-16,-6.98930930493e-16,5.75372540411e-16,-2.96813897245e-16,-5.86607585423e-16,-3.88876214216e-16,-1.252145089e-15,2.03182197629e-15,-2.92958203269e-16,2.75555403148e-15,-1.72442355534e-16,1.35010275529e-16,2.83600183268e-15,1.75857592377e-16,-8.99210176805e-16,1.44957830461e-16,-2.29823755513e-15,3.24921838567e-16,2.45988532278e-16,-1.06753256408e-16,1.4727802311e-15,-7.58908486455e-16,1.26005976486e-15,4.88622814085e-16,1.71968017083e-16,-1.347087318e-16,1.58246083338e-15,-7.51446973223e-16,4.07280546094e-16,2.15417419146e-16,-2.92192485485e-17,1.10764804447e-16,1.55691431969e-16,3.22658566532e-16,1.96965653423e-16,-1.18286457018e-16,-4.30048791716e-16,-2.65537205668e-16,1.81449365082e-15,-5.01985605861e-17,1.34582015671e-15,-3.72315026032e-16,-1.87051979808e-15,1.18194299834e-15,-3.89174369814e-16,-1.61220863049e-15,-3.16404075249e-16,-3.52812939454e-16,3.80473647379e-16,-5.54013757613e-16,-4.71912548101e-16,1.00559751498e-17,-2.92300905702e-16,2.08979968747e-16,-2.27465615787e-16,1.90890055499e-15,9.98712831185e-16,-3.37186875643e-16,1.06013288426e-15,-3.34096899451e-16,-3.64790662954e-15,2.19930410689e-16,1.97107954958e-16,-6.81990271548e-16,-1.50151158868e-15,-1.11057539033e-15,3.84010856967e-16,2.34533258699e-16,8.42804558782e-16,-2.2226144536e-17,-2.55221191403e-16,-1.26533169793e-15,-1.14480907393e-15,1.3238108526e-16,-2.33645568171e-17,-2.31070588011e-16,3.66297703974e-16,-6.32171181722e-16,-1.14914588262e-15,-4.90289774925e-16,9.31329666165e-17,5.07603128367e-16,-1.36116161745e-15,-2.19483177293e-16,1.02115581616e-15,-4.84502845829e-17,-4.63442218629e-16,7.99002791013e-16,5.54881119351e-16,-6.35559313511e-16,-1.42507533551e-15,9.37916194363e-16,-3.74862901137e-17,-6.98331231166e-16,-3.75865788146e-16,-3.65159291693e-16,-1.28274669532e-16,-2.44271067098e-16,7.3125370776e-16,3.62611416588e-16,-4.53819924348e-16,-4.32298511224e-16,-2.96204033523e-16,-1.71398810943e-16,5.81916716961e-16,2.44596010113e-16,1.75261281182e-16,3.55780942901e-16,-2.32778206433e-16,5.53173500929e-16,-8.06727731492e-16,5.21501244966e-16,3.85081506613e-16,2.23345647532e-17,1.30386153263e-15,-2.24253666851e-16,-1.24587704519e-15,9.34555167628e-16,1.78676518026e-16,-4.86915195663e-16,1.86992348689e-15,1.15250690935e-16,-4.24248310094e-16,-9.6819254003e-17,3.39734750748e-16,-7.31971991699e-16,-9.65183879001e-16,-1.04398504815e-15,1.29816947123e-15,2.08329447443e-15,-1.50433051432e-15,5.13301966036e-19,-2.92056960213e-17,-8.84708972748e-17,-1.34045335595e-15,-1.93252260982e-16,-8.50881864967e-16,-8.78772965854e-16,-1.2029358629e-15,2.92966673599e-16,-1.24013754994e-15,1.09341789095e-16,-9.93894907781e-16,6.62447527389e-16,-1.06175918752e-15,-2.25432736714e-16,4.7287477753e-16,-6.09863722023e-18,1.56369058327e-16,2.18466314239e-16,-1.11154100789e-15,-1.33391997907e-15,-1.07807643021e-15,-1.66167535461e-16,-6.33119858623e-16,-6.29650411671e-16,1.02782365952e-16,-8.87934474211e-16,-4.11920592579e-16,1.31117312103e-15,-1.10073625562e-15,-8.72796301378e-16,-1.20368125189e-15,-3.5030572193e-16,1.2741543931e-15,2.09833777957e-16,-5.87607084301e-16,-2.06718729591e-15,-4.30672207966e-16,-7.19042880792e-16,6.96599895822e-18,-4.93589815288e-16,-2.42830793451e-16,3.9926083815e-16,1.99818460389e-16,-4.04719118462e-16,-9.99959663683e-16,4.28395383403e-16,-1.55420381426e-15,-1.78717853233e-15,-7.48289234395e-16,-1.47668335893e-16,-7.17850258403e-16,-3.7265383921e-16,-2.90566182226e-17,-3.93971964427e-16,-8.24710240962e-16,6.13766849844e-16,4.15357852279e-16,9.35883315289e-16,-6.02469124394e-16,-5.47061311182e-16,4.0403471584e-16,-2.04616055002e-16,3.38406603087e-16,1.08127567365e-16,-1.4711810329e-15,1.82064649815e-15,-5.72187696529e-16,-5.28684084358e-16,-1.12084820592e-15,-3.41903155093e-16,-1.94153588741e-15,3.77437881297e-16,-3.88849109162e-16,-3.41090003464e-16,-6.44016090456e-17,3.36156883579e-16,7.67669348228e-16,-1.60190870985e-17,-1.62637102136e-16,-7.86900384263e-16,-1.73385611424e-15,-5.60803573718e-17,-7.06845606352e-16,1.30884886262e-15,6.02436937142e-16,2.93114057331e-16,7.41323235437e-16,-2.02962646689e-16,6.00492149495e-16,-2.60208521397e-17,-1.66153982933e-16,4.03350313219e-16,1.7139745569e-15,1.03313625016e-15,1.12583553591e-15,1.14583906599e-15,5.70507183162e-16,1.39009965106e-16,4.78295788392e-16,2.40569554295e-15,8.73324849937e-17,-6.3442090123e-16,1.436296828e-15,1.59627085855e-15,-1.26885535499e-17,-4.72718923467e-16,7.28095968933e-16,1.22682896828e-15,-1.36562717514e-15,-1.71119628883e-15,2.17241589301e-15,-5.06457939822e-16,-2.01424434857e-16,1.37113627743e-15,8.98261499904e-16,-4.92580152014e-16,6.71121144769e-17,-1.93069301865e-16,1.49281086624e-15,-9.90147634022e-17,-7.66259885404e-16,6.08318733927e-16,1.08406664721e-16,-3.31657444563e-16,-1.11249984919e-15,-7.53710245258e-16,-2.37524979069e-16,7.5774889835e-16,9.34954967179e-16,-1.6902711869e-16,1.31405303305e-16,-7.33916779346e-16,8.19887235361e-16,-7.3411329099e-16,3.9443275035e-16,-7.49319226459e-16,2.35868182624e-16,-1.16971861884e-16,8.78854281017e-16,-2.24131694107e-15,6.71012724551e-16,8.11525326105e-16,-2.90891442878e-16,-9.40762225066e-16,-2.90078291248e-16,2.23977872924e-15,-1.35823427158e-16,-3.59955121265e-16,-7.29505431757e-16,-1.92310360345e-17,1.05167610731e-17,-3.15285991759e-16,-3.80012861456e-17,5.92272541775e-16,1.83663848019e-16,-3.2233330588e-16,-2.06784459347e-16,4.0191374534e-16,-5.93282205048e-16,9.36100155724e-16,2.60547334575e-17,3.45094775239e-16,-1.50704101975e-17,-8.82337280496e-16,-1.88149734508e-16,3.29868510979e-16,-3.44139322074e-16,5.13789857014e-16,-8.85786398657e-16,-9.22656048785e-17,-4.74338450462e-16,9.63313630253e-16,-2.04277241823e-16,1.96189093617e-15,-4.17959937493e-16,-7.80983012093e-16,1.04617378129e-15,2.33211887302e-16,-3.36048463362e-16,1.32259112516e-16,-8.89418475935e-16,-1.66763846655e-17,-3.5621462377e-16,-6.49152445309e-16,1.35633691778e-16,-1.78351257374e-17,-9.26776017041e-16,-2.80889677837e-16,-3.1346518856e-16,-1.81683823802e-15,1.964303286e-16,4.38017677684e-17,-2.01851339462e-16,2.64843485684e-16,-2.65548217096e-16,-1.12003505429e-15,-4.68321128405e-16,3.55130421598e-16,1.78107311885e-16,-1.57690429724e-16,-1.81434457302e-17,1.02001740387e-15,-1.56156961277e-15,1.10210506086e-15,1.28467115418e-15,1.46529923611e-16,1.20698806852e-16,-7.69105916107e-18,-6.51534354896e-16,-1.71846044339e-17,8.93328380019e-16,7.22208751136e-15,-5.26124350792e-16,5.62633164884e-16,6.25259392872e-16,-1.25889424753e-16,-3.59304599962e-16,7.50404783884e-15,-1.47993596544e-16,-3.61039323438e-17,-1.3747141446e-15,6.03954820183e-16,4.71926100629e-16,-7.51894206619e-16,5.88938620094e-16,-1.11797507016e-15,1.10507137024e-15,-1.11285729709e-16,-1.40621021771e-15,-1.1512329718e-15,-3.80283911999e-17,7.57261007373e-16,6.71771666072e-16,2.90410328164e-16,1.40669810869e-15,-7.33571189904e-16,-2.19399151624e-15,-9.34528062574e-16,3.20490162187e-16,9.64567239015e-17,1.15603056641e-16,2.15756232325e-17,4.10153681851e-16,-3.2195383512e-16,6.76582813212e-16,-1.24656144782e-16,-1.02661790812e-15,-2.12286785373e-16,3.59277494907e-16,4.37041895729e-16,-2.49840838122e-16,-1.288574282e-16,1.04308041696e-15,2.62539556067e-16,1.35392456795e-15,1.65849051072e-16,1.17852776149e-16,-1.90591899901e-15,-1.56249796088e-15,4.38234518119e-16,1.63950342018e-15,8.61940727126e-16,1.64527679675e-17,1.40424510128e-16,-4.7878367937e-16,-7.99097658703e-16,6.14010795333e-16,2.54164094285e-16,5.07406616723e-16,-4.66640615038e-16,-2.60262731505e-16,6.51165048531e-17,-7.46418985648e-16,-6.32252496885e-16,3.01150705935e-16,1.49587373738e-15,4.72495306769e-16,-9.69710423071e-16,-1.08759030427e-15,-6.769758365e-16,4.56584639888e-16,-4.10370522286e-16,-2.9121670353e-16,2.83532420632e-16,-5.248622717e-16,4.54029988519e-16,2.36383178656e-16,-6.22142311626e-16,3.2979990131e-16,-7.26415455565e-17,-2.14075718957e-16,-1.16470418379e-16,4.00368757245e-16,7.45388993584e-17,2.05490193004e-15,2.52643500738e-15,-1.05102558601e-15,-1.64256629132e-17,3.61581424524e-16,1.64825835272e-16,-2.1739608811e-16,4.03187682893e-16,-1.4122410923e-16,-1.16242735923e-15,1.36349265212e-15,-1.44849410244e-16,-6.68410639337e-16,3.15665462519e-16,-8.35167709729e-16,-1.61829371518e-15,1.49999370563e-16,-2.24185904216e-16,9.56808417218e-17,1.49164534891e-15,-2.24755110356e-16,3.70444777284e-16,2.30013490893e-16,-8.69801192876e-17,-3.05392646935e-16,6.31988222605e-16,3.76109733635e-16,-8.79016911343e-16,-3.07208685574e-16,-1.53327871233e-15,3.61689844741e-16,-9.25366554216e-16,9.29974413449e-17,7.40510083808e-17,5.6518103999e-16,-1.43358632257e-16,-1.25821662117e-15,-1.15968974874e-15,-6.06285854854e-16,-3.01082943299e-16,-3.95083271654e-16,4.04055044631e-16,7.34614734495e-16,-2.7939889985e-16,-3.37024245317e-16,-4.3632361179e-17,-9.44882193321e-16,-5.34388004225e-16,-1.11672823766e-15,-3.8871358389e-16,-5.81403414995e-16,-3.16952952599e-16,4.9236331158e-17,1.08538801861e-15,-2.41966819844e-16,-8.39145376449e-16,-2.39093684087e-16,-3.05636592424e-16,-2.16970877571e-16,-2.28387187634e-16,-5.74789781743e-16,-6.39577637813e-16,2.080583969e-16,-2.93439317983e-16,-4.00450072408e-16,-3.52453797484e-16,2.22966176772e-16,-2.27267748891e-15,-1.10463938344e-15,-2.99646375421e-16,3.59751155731e-15,9.34311222139e-16,-7.54387871615e-16,1.93746928223e-16,-3.04552390251e-16,8.05114980761e-16,9.65644664924e-16,2.99239799606e-16,6.57311119596e-16,-1.52731560038e-15,-4.80328667465e-16,7.02129326902e-16,-6.7816845889e-17,7.3218205587e-16,1.03216046821e-16,-1.62792956199e-16,9.19945543354e-17,2.35217661321e-16,-4.35578222796e-16,2.43902120722e-15,-7.95045453084e-16,6.6506316513e-16,3.6526771191e-16,-2.37115015123e-16,6.37809033019e-16,-6.28816931251e-16,9.1615083575e-17,-4.63550638846e-16,-7.92009687001e-17,-5.72594272344e-17,6.30734613843e-16,-3.61920237703e-15,-3.42716306723e-16,3.07804996769e-16,-5.97449607148e-16,1.56219980528e-16,5.71427060943e-16,2.24446790363e-16,-8.00385148783e-16,-1.85330808859e-16,9.77082997844e-16,-1.07197779299e-15,1.2414114875e-17,-5.60478313066e-16,8.28330459779e-17,7.82522917991e-17,-1.90862950444e-15,-5.78421859021e-17,-1.52127117327e-16,-4.03702678925e-16,-2.05433441796e-16,2.78097857243e-16,-9.69032796713e-16,6.83047368666e-16,-2.76579974201e-16,-1.98680048108e-17,9.9423372096e-16,1.7260498586e-16,-9.24987083456e-16,8.08489560022e-16,-7.60821510366e-16,-1.44567517679e-15,2.08275237334e-16,-2.10240353772e-16,9.84862148432e-17,-5.99563801384e-16,1.31236574342e-15,1.79238947903e-16,-8.29034344158e-16,-9.01514106422e-17,-2.67730173968e-16,-2.30392961653e-17,-5.26922255828e-16,2.6293528986e-15,-1.24344436657e-16,6.27753057869e-17,1.84097528888e-16,-5.24265960505e-16,-4.20128341838e-16,-7.43437429673e-16,3.43095777483e-16,-5.78638699456e-16,-4.66450879658e-16,-7.46202145213e-17,-1.23447259359e-15,2.51643324234e-16,-7.65988834861e-17,1.46800974155e-16,-5.09385285688e-16,-2.50667542279e-16,-1.30131365753e-16,-4.51339811879e-16,5.72187696529e-17,-9.23686040849e-16,4.19911501404e-16,-2.935477382e-16,-4.37334630315e-15,-7.5894152074e-19,3.16397298986e-15,-1.05281451959e-15,1.00478436335e-15,-1.91510761242e-16,-4.64309580367e-16,-5.14321793705e-16,-3.73250150405e-16,7.76822386256e-17,-5.48958664984e-16,-4.96835645541e-17,6.74983615008e-16,1.65720302064e-15,1.03573833538e-15,1.60543236691e-16,-1.2628244804e-16,-2.79090579857e-16,2.80306919169e-16,-3.66846581324e-16,-5.39471895974e-16,1.23096248906e-15,5.59719371546e-16,-4.02672686861e-16,-3.33690323637e-16,7.52978408791e-16,-8.28113619344e-16,1.7291940449e-15,-8.14425566917e-16,-3.49221519758e-16,-4.97052485976e-16,-2.05314010151e-16,6.89003704351e-16,-1.06181339762e-15,-8.38250909657e-16,4.58271929519e-16,7.76342965608e-16,8.21825246744e-17,-1.30407837307e-15,-1.40293050614e-15,-6.79090030736e-16,3.89445420357e-16,-2.92571956245e-16,1.92120624964e-16,7.56339435526e-16,-9.88223175166e-16,7.58914415686e-16,-1.23726441419e-15,-6.93658997429e-16,3.93673808829e-16,1.39231887738e-16,-1.85100415898e-16,-2.07611163504e-16,-5.29768286531e-16,-1.43521262583e-16,7.44955312715e-16,4.1978749578e-15,8.57468393164e-17,-2.07402454586e-15,-3.6608086354e-16,-1.46979952216e-15,-2.15031172122e-16,9.31058615622e-16,2.68082539674e-16,1.47993596544e-16,-4.58177061829e-16,-1.05736816872e-16,1.67056581242e-15,2.0345731393e-16,1.36067372647e-17,4.62303806348e-16,9.79142981972e-16,9.15879785207e-17,-4.66776140309e-16,-4.26904605416e-17,1.76453903572e-16,-4.12999712554e-16,-6.5824624397e-17,-2.80699942456e-16,-1.33333150293e-15,-7.93364939716e-16,-5.16351284646e-16,3.96807830734e-16,-1.19549552549e-15,-1.01123536628e-15,2.3667455799e-16,1.90478058673e-15,-3.29597460436e-17,3.08319992801e-17,-7.02563007771e-17,-1.01719847823e-15,7.18609199923e-16,-3.40602112486e-16,3.98241010481e-16,9.76974577627e-16,-2.85226486527e-16,8.95313825248e-17,4.51910712085e-16,2.62173637834e-16,8.22638398373e-16,-3.69720225301e-15,6.38161398725e-16,-1.11152406723e-15,-4.48588648866e-16,1.78603334379e-15,8.86335276007e-17,-1.82105201517e-17,-2.49518287976e-15,6.39960496705e-16,6.55942314354e-18,1.21262591982e-15,3.29976931196e-16,8.36190925529e-17,1.08063785784e-15,-1.34739224986e-16,-1.10588621594e-15,-7.18609199923e-16,-1.55040910665e-16,4.89679911203e-16,1.45499931548e-15,-4.03919519359e-16,1.08284691977e-16,5.26542785068e-16,4.60840133415e-16,3.19839640883e-17,1.47310549176e-15,-2.26435623724e-16,1.05815845046e-15,-3.01503071641e-16,6.47377117191e-16,4.50214952125e-17,-2.83410447888e-16,-6.38052978508e-17,-1.83293694621e-16,-5.33142865793e-16,-6.40546643504e-16,-4.06724892481e-16,2.15430971673e-16,-2.41946491054e-16,-4.86820327973e-16,-4.39222158535e-16,6.16043674406e-16,-2.55214838656e-16,6.51171824795e-16,5.26380154742e-17,-8.16241605556e-16,-3.39599225477e-16,-2.112025832e-16,7.92334947652e-16,2.89807240705e-16,-1.31898615294e-15,-3.99555605615e-16,7.34980652728e-16,-1.14014700459e-15,1.18967471508e-16,3.80270359472e-16,-1.18178036801e-16,-2.18764893353e-16,-7.04731412116e-17,2.55338420763e-15,3.57569876486e-16,3.02167145472e-16,4.25142776886e-16,-4.85011065598e-16,4.42723792739e-16,5.9073297469e-15,1.56130533849e-15,-3.7789866722e-16,-8.17908566396e-16,-9.61504367878e-16,-1.03324467038e-16,-4.94748556359e-16,3.2712412423e-17,3.36865003123e-16,-7.28909120562e-16,-1.53555553689e-15,3.88957529379e-16,2.17057274932e-16,1.53826604232e-15,-5.51154174383e-16,-8.00791724598e-16,5.016061351e-16,-6.9627463517e-16,-2.14373874555e-16,3.71610294619e-17,2.98751908628e-16,-1.6311821685e-16,-1.30087997666e-15,2.48377165189e-16,-1.34180860867e-15,-1.86622364697e-15,6.48895000233e-17,-6.35477998348e-17,4.00260337027e-16,3.41523684333e-18,1.97804554854e-15,1.21028810888e-15,5.52943107968e-16,3.25423282072e-16,8.01225405467e-17,2.24890635628e-16,-9.77137207953e-17,4.76777905351e-16,4.5157020484e-16,5.4544856045e-16,3.60781825422e-16,1.11674179019e-15,6.89620344337e-16,-5.40501888038e-16,-5.70669813488e-16,-2.92253471857e-16,-1.5293213744e-15,-9.32793339098e-16,8.06375365786e-16,-6.49653941753e-16,-3.62563982743e-17,4.41595544853e-16,1.77348370364e-16,-1.22352215165e-16,-2.11582053961e-16,6.78412404378e-16,9.77887679144e-16,-8.80426374167e-16,-6.41088744591e-16,2.11544784511e-16,2.91270913638e-16,1.74339709336e-16,3.5233182474e-16,1.69135538908e-15,2.04610633991e-15,1.04685140764e-15,-5.26461469905e-16,-9.5084530527e-17,1.28561983108e-15,-5.90090584902e-16,-1.67422499475e-15,9.85214514138e-16,-3.32416386084e-16,2.12827192393e-16,-1.62847166307e-16,6.20244957825e-16,-3.23553033324e-16,6.02816407902e-17,-2.85470432015e-16,-1.17063341442e-16,1.4558124671e-16,-8.78203759713e-18,2.94469310047e-16,-1.58896604641e-16,-3.21086473382e-16,-3.82872444686e-16,-1.15552869939e-16,-2.39418944739e-16,8.6768699864e-16,8.54080261375e-17,-4.98136688148e-16,7.09718742109e-16,5.82704457602e-16,4.09720000982e-16,-1.22655791773e-15,-1.13136496699e-16,1.18313562072e-17,1.6431083924e-16,1.09450209312e-16,-1.27296177072e-15,-1.12903393232e-15,-9.50520044618e-16,1.02132691681e-15,-7.38341679463e-17,-5.1580918356e-16,-3.81747584932e-16,3.92643816766e-16,-8.05480898994e-16,-4.99139575158e-16,9.49761103097e-16,5.17056016058e-16,3.3820331518e-16,-7.00123552883e-16,-7.48045288906e-16,-2.30441750751e-15,-4.81033398878e-16,2.46177844142e-16,-3.88557729828e-16,3.41171318627e-16,4.11915510382e-16,6.4724159192e-16,-1.9385534844e-16,4.78133158066e-17,-8.99074651534e-16,-4.51136523971e-16,1.24818775107e-15,4.13948389455e-16,2.7129448861e-16,1.35533403077e-15,3.60639523887e-16,-9.71363831384e-16,-6.35803259e-16,2.52022794994e-16,3.65918233214e-18,-1.96403223546e-16,-3.27971157177e-16,-4.87782557401e-16,-1.15993369423e-15,5.23086890643e-16,1.93557192843e-16,1.53190990709e-16,-8.8198491479e-16,-2.56739074445e-16,6.81014489592e-16,-3.30071798886e-16,6.24473346297e-16,7.21157075029e-16,1.67604103339e-16,3.56160413661e-16,1.36880524276e-17,2.33211887302e-16,1.46285978123e-16,-7.06222190103e-17,-1.59431929464e-16,-5.3039170278e-16,-2.37440275774e-16,-3.0303450721e-16,-6.04713761704e-17,3.02207803053e-16,-4.79976301759e-16,-7.33137509035e-16,-1.04458813561e-15,6.17046561416e-16,2.37657116209e-16,-4.13623128803e-16,-1.32248948121e-16,-5.98696439646e-16,-2.90159606411e-17,-7.21129969974e-16,-1.88544451861e-16,-3.22685671586e-16,-2.99727690584e-16,6.24392031134e-16,-1.30565046622e-16,1.14811589055e-15,-4.10478942503e-16,3.56323043987e-16,-1.16816007822e-16,2.16406753628e-16,-1.97636503517e-15,5.81376309941e-16,6.76108474762e-16,2.84413334897e-16,-1.11347563114e-16,1.90640688999e-15,-1.93801138332e-16,-8.97177297732e-16,8.94737842844e-16,8.39497742156e-16,-1.050022699e-15,-1.96509610884e-15,1.25057977212e-15,-1.22013401986e-16,1.1132045806e-15,-5.46004214064e-16,4.203587348e-16,-7.8062556419e-18,1.49836740237e-16,6.37239826878e-16,-6.97250417125e-16,-1.95340705417e-15,-4.68483758731e-16,1.70436581515e-16,4.80897873606e-16,5.65614720859e-16,2.39839073081e-16,1.39862080251e-17,-1.19018293485e-15,-7.58304551964e-16,4.04664908353e-16,3.3100692326e-16,-6.96471146814e-16,1.49739162042e-15,-2.85578852233e-16,9.94030433053e-16,-6.23768614885e-16,6.67394199801e-16,4.70611505494e-17,5.14128670193e-16,-9.43161022372e-16,-5.89209670637e-16,-4.50865473428e-16,-5.97341186931e-16,1.54661439905e-16,-2.13614933034e-16,-2.36518703928e-16,7.89434706841e-16,-6.74482171503e-16,1.75112203384e-16,-2.03091395697e-16,-5.8052250073e-16,4.78851442005e-16,2.80483102022e-16,-5.36354814729e-16,-1.2338762824e-15,1.12452094077e-15,1.43101134241e-15,3.32660331573e-16,1.02890786169e-16,5.31259064518e-18,-2.25351421551e-16,1.08759030427e-16,6.54261800986e-16,3.48069554949e-16,-5.94305420848e-16,1.60814287234e-15,-1.46210083971e-15,5.48281038626e-16,-1.02944996277e-15,3.50522562365e-16,-3.77302356025e-16,-1.45161118369e-16,-3.91613824702e-16,-1.07281804967e-15,-4.84340215504e-16,-4.03323208165e-16,-6.27969898304e-16,1.28271959027e-15,-4.02022165558e-16,-4.88975179791e-17,8.00480016473e-17,-7.96888596777e-16,1.64175313969e-16,5.45218167489e-16,-2.39337629576e-16,-2.21773554382e-16,-1.79760720198e-16,1.00654619188e-16,1.3181187912e-16,2.31368743608e-16,2.80808362674e-15,7.84826847608e-17,6.56538625549e-16,1.18497876442e-15,-7.88699482243e-16,-1.80431570292e-16,1.00559751498e-17,-1.2942663434e-16,8.52989282939e-16,-1.14273214914e-17,-2.09552563019e-16,-2.13760622701e-16,2.16325438465e-16,1.69081328799e-16,6.90799414199e-16,-2.51534904017e-17,-2.06472751223e-16,-1.81868138171e-16,2.35629658146e-15,1.3238108526e-16,2.85362011798e-16,1.26275671777e-16,-1.30326522144e-15,5.29138094018e-16,9.49503605081e-16,2.64134519107e-16,-1.00147754672e-15,5.91432285091e-16,-7.83024361496e-16,6.06855060994e-16,2.57877486726e-16,-3.85054401558e-16,-4.51621026817e-17,1.30765624023e-15,-1.29459160406e-15,-6.80878964321e-17,-5.59495754848e-16,-2.0372158821e-16,5.15782078506e-16,-2.65629532259e-17,1.12155293733e-15,6.71663245855e-17,1.6424578711e-15,-2.7820627746e-16,-6.84473772149e-16,4.21741516086e-16,4.0744317642e-16,4.21754645097e-17,-2.24429849704e-16,-2.67526886061e-16,-8.35106723357e-17,1.08864740139e-15,6.8731641472e-17,5.61616725347e-17,-4.85878427336e-16,2.47306515544e-16,9.95297594342e-17,-8.86660536659e-16,3.25233546691e-16,4.71627945031e-17,-1.1113072268e-18,-2.84667444781e-16,-4.10262102069e-16,-8.02445132911e-17,2.40421831749e-16,3.62950229767e-16,6.49166050776e-16,3.15177571542e-16,-6.86299975183e-17,1.13773465475e-16,-5.99834851928e-16,1.19573947098e-15,-9.66566236771e-17,4.30240221162e-16,-4.28151437915e-16,1.5337123932e-15,-8.87961579266e-17,-5.22355054176e-16,3.05040281229e-16,1.36841221948e-15,-7.96346495691e-16,-9.50513268354e-16,-3.35452152167e-16,4.18075133974e-16,8.02309607639e-17,-1.50812522193e-16,-3.337716388e-16,-1.41987116509e-15,-7.19042880792e-16,4.45579987837e-16,-1.45207196961e-15,-2.49904535e-15,1.21197539851e-15,1.97552477849e-15,-1.29616369721e-16,-7.64796212471e-16,4.06033713596e-17,-1.20843818893e-15,-3.13402190484e-16,-4.69196960473e-17,5.50002209575e-16,-9.34460299938e-16,8.29008086137e-17,-9.93332477904e-16,-7.329206686e-17,4.50025216744e-16,-3.54405361395e-16,3.25260651746e-17,-1.48860958282e-15,7.63996613369e-16,4.45303516283e-15,-3.54432466449e-16,2.77740070526e-15,-6.29392913655e-16,1.01990898366e-15,4.0356037739e-17,8.53944736104e-17,1.58564567726e-18,-3.18596196517e-16,7.91684426349e-16,1.1684988914e-15,-2.15627483317e-15,-5.97883288017e-16,2.31887127772e-16,1.65449251521e-16,-5.47684727431e-16,1.90152798021e-15,-7.81763976471e-16,5.65736693603e-16,1.72615827881e-15,9.19620282702e-16,4.00666912842e-16,2.56867823453e-16,-5.58499644102e-16,-5.69206140555e-18,-4.29967476553e-16,-1.16742824175e-15,3.8167169078e-15,3.49438360192e-16,-6.0151832991e-17,1.25371718215e-15,-3.62730678827e-15,6.97955148538e-16,4.21754645097e-16,-8.3499830314e-16,-4.62530811178e-17,-2.07746688775e-16,-1.42789426116e-16,4.78089789979e-15,-5.14128670193e-16,9.31492296491e-16,-6.34261659036e-16,-5.54718489025e-16,-4.04217674957e-16,6.77626357803e-17,-3.58139082626e-16,3.09214459593e-16,-1.80519661719e-17,1.36364172992e-15,-1.21159592775e-15,-3.69360575111e-16,3.1394429157e-16,6.63287784072e-16,-3.47825609461e-17,-7.06682976026e-16,2.43999698918e-16,2.00189799633e-15,-4.06575814682e-16,-8.75059573413e-16,-1.0116961522e-15,2.70026056772e-16,-1.10724146865e-16,1.6101215413e-15,-1.98799310347e-15,-4.69120727507e-16,9.04007771418e-16,-1.3256539963e-15,-1.06322963671e-15,-1.27339545158e-16,8.23288919677e-16,-4.15357852279e-16,4.49266275224e-17,-3.5502200138e-16,-8.90062220975e-16,3.26107684693e-19,-2.14021508849e-16,-2.38687108273e-16,1.94099293929e-16,-3.59182627217e-16,-7.30881013263e-16,1.34739224986e-16,2.264864457e-16,3.45264181828e-16,-6.80160680382e-16,1.69992058624e-15,7.8534184364e-16,-7.61746893861e-16,-4.82632597082e-16,9.38160139852e-16,-6.49166050776e-17,1.7915763274e-16,7.82414497774e-16,-1.98110841967e-16,-1.53197766972e-16,3.91342774159e-16,-1.31833563163e-15,4.23109897812e-16,6.37497324894e-16,-1.47017814589e-16,-3.28657253864e-16,-5.11309744544e-16,4.23384336487e-16,1.03365124619e-16,3.01001628136e-16,-3.02140040417e-16,-1.75085098329e-16,-1.74936020531e-16,-2.43647333212e-15,3.93456968395e-16,1.31616722729e-15,4.11129463807e-16,-7.82251867448e-17,-1.77917576505e-16,-4.74677263641e-18,-4.55127743219e-17,5.38225063476e-16,-1.15223585881e-16,-3.4911309954e-16,5.85398700001e-15,4.45173412023e-16,3.8741169425e-16,4.55663068041e-16,-1.01462349807e-15,3.6388535414e-16,1.14036384502e-15,-4.19965711512e-16,-2.1267980866e-16,-6.73357311749e-17,-4.27636441883e-16,-2.38632898164e-16,-1.41163122858e-16,3.51491568056e-16,-4.52598502838e-16,3.37554487942e-16,3.3019377163e-16,9.74047231761e-16,2.19821990471e-16,6.02382727033e-16,-3.86734914926e-16,-8.26270475651e-16,-7.1333726686e-16,-1.23111156686e-16,-1.08734635879e-15,1.46909394372e-15,-1.01557217497e-15,-3.5068519269e-16,8.48930301056e-16,-5.88992830203e-17,7.79866622669e-16,-1.5802246664e-17,3.2547749218e-16,-1.75727488116e-15,-7.95628211751e-16,-8.69638562551e-16,2.84169389408e-16,-1.26613129703e-15,-5.14094788875e-16,-5.81663877627e-17,-5.12028028483e-16,-5.62592507303e-16,1.02435421256e-15,1.15668108772e-15,3.37254638279e-17,5.35379032773e-16,-3.29190884621e-17,-2.3917499925e-16,-4.82469966756e-16,4.72928987638e-16,8.58525490283e-16,-1.39883764294e-15,-8.1960263229e-16,-5.54515201118e-16,2.49674142038e-15,9.26369441226e-16,-3.73643173693e-16,1.76643638952e-16,-2.77176285396e-16,-5.2624462947e-16,2.36057918004e-16,1.04143039678e-15,-9.91069205869e-16,-4.39860821377e-16,5.16784965515e-16,1.52612467206e-15,-6.00431163122e-16,-2.4332207256e-15,3.20774765257e-16,-6.0856945568e-16,5.0103692896e-17,1.00435068248e-15,-2.98264017651e-16,-1.84799549795e-15,-1.23609889685e-15,-1.01635822154e-15,-7.60947294759e-16,9.1910528667e-16,1.93028644284e-15,-5.73082163322e-16,-3.53802273936e-16,-8.57332867893e-17,4.74473975734e-17,-3.99636920778e-16,-6.84944722468e-17,4.13297868151e-16,-4.96456174781e-16,-6.55129162724e-17,2.40828407563e-17,3.95503399996e-16,1.03283809456e-15,-8.21222159286e-16,-1.54054286688e-15,1.29684132356e-16,-1.69298169234e-16,1.81766494217e-16,-2.80970993e-16,-2.77962331971e-16,-3.00025846181e-16,5.52238376555e-16,5.60532523175e-16,7.99815942643e-16,-1.27231124941e-16,5.44269490588e-17,-2.93303792712e-16,4.20670442924e-17,3.1403915926e-16,2.00468981693e-16,7.0614087494e-16,1.04950770297e-16,-2.11256793309e-16,2.38876843653e-16,-6.43745039913e-16,-3.65728497834e-16,-5.34714958943e-17,-7.75746654413e-17,-4.61870125479e-17,-3.4735127101e-17,2.65336458859e-16,-1.08849154733e-15,-7.5064737412e-16,4.75693703178e-16,4.85885203599e-16,9.16367676185e-16,1.71005787655e-16,-1.69135538908e-16,-1.32137139772e-16,5.22558342084e-16,5.85469173142e-18,-1.68138072909e-15,-1.16345735129e-15,1.82186622559e-16,3.43800508895e-16,7.64904632689e-17,-2.94902990916e-17,-1.05280096706e-15,9.05091973591e-16,2.48444927825e-16,-9.19186601833e-16,9.23577620632e-16,3.8261494667e-16,-6.58144600017e-16,9.70631994918e-17,1.99032413814e-16,1.72628025156e-15,-3.02356880852e-16,8.51098705401e-16,-9.93407016803e-16,-1.21362541869e-15,1.05175403434e-15,-7.7666822626e-16,6.53828120117e-16,-1.34484437475e-15,1.55100541785e-15,6.66242234992e-17,9.75131433933e-16,2.63461127914e-17,2.33943723768e-16,2.52031604137e-15,-3.47527453863e-16,6.58303842211e-16,8.73379060046e-16,-8.45081383344e-16,2.20960402753e-16,-5.32126426256e-16,9.2010817368e-16,5.18357058665e-16,-1.90006430728e-17,-4.73044184119e-16,-9.13711380862e-17,9.27426538344e-16,-5.71767568187e-16,-4.30455367531e-16,1.39891302887e-15,2.61168040319e-15,-2.04372109514e-16,-2.2270596825e-15,1.13277442981e-15,1.62152938104e-15,8.46897421983e-17,1.02451684289e-15,4.42259618684e-16,-5.9482041688e-17,8.74842732979e-16,-6.74285659859e-16,3.49546780409e-16,-1.00939222258e-16,-3.63993774358e-16,-1.74326156809e-16,3.80365227162e-16,1.05173031742e-15,9.7014410394e-16,-5.1700180595e-16,9.34799113117e-16,8.58213782158e-16,1.46229057509e-15,-1.79782404242e-15,4.18373289571e-16,-1.03842173575e-15,-2.52979603411e-15,-3.02085830309e-16,3.62538995271e-16,4.60325137383e-16,-7.1123662515e-17,-7.12862928409e-16,2.04007038313e-16,-1.48535697631e-15,8.99318597022e-16,1.3866403685e-15,1.4878506413e-15,4.25874613352e-16,-1.44937501671e-15,-2.0741465186e-16,-1.20536176526e-16,-8.3575724466e-16,3.45711415224e-16,-1.87675396057e-16,-2.6123851346e-16,1.93573625282e-15,-3.2114068349e-16,1.0356028101e-15,6.88902060397e-16,9.4217168789e-17,2.56007237978e-17,4.5931547411e-16,9.90201844131e-16,8.07835227071e-16,-6.25476233307e-16,9.13413225265e-16,4.1159024973e-16,5.82758667711e-18,-4.97499719372e-16,4.70028746827e-16,1.17581725606e-15,-1.12572711569e-15,5.46383684824e-16,2.09427202143e-16,-1.77776630222e-15,-5.75819773807e-16,-1.6235927533e-16,2.80699942456e-16,8.25999425108e-16,5.13803409541e-16,8.65992932746e-16,1.89778748272e-15,-2.11022334589e-15,-6.50114727677e-17,3.80121281673e-16,-8.00412253837e-17,-2.60587992157e-16,-1.36609473733e-16,-2.94679374218e-16,1.01025958432e-15,-1.33885415775e-16,-1.86509878722e-16,4.57137752403e-16,5.38807822144e-16,-4.22323851237e-16,5.02907177707e-16,-3.50956243234e-16,2.55678589195e-16,9.4474666805e-17,-7.73097135354e-16,-8.21391565875e-16,5.51181279437e-17,-8.99643857674e-16,7.70867744637e-16,-5.58147278396e-16,-7.69620912139e-16,1.03703937798e-16,4.86698355229e-16,3.02492406123e-16,-3.28025367285e-16,-1.22558213578e-15,-1.71282259209e-15,3.61296821454e-16,2.65846372693e-16,3.80609172651e-16,1.54257574596e-15,-5.70127712402e-16,-1.4915911388e-16,-8.18918229669e-16,-5.38035328096e-16,-3.99230344963e-16,6.61905426302e-17,-2.00382245519e-15,-1.16199367836e-15,4.37746627141e-16,-2.83369790306e-16,4.79291052105e-16,6.92046246697e-16,7.96441363381e-16,-2.43945488809e-16,-6.51415770284e-16,-5.56141504376e-16,1.65232411087e-16,-1.95370520976e-15,-2.20960402753e-16,-6.86706550998e-17,-2.22303797007e-17,1.60868497343e-16,3.09878533424e-16,3.96763785021e-16,4.19952158985e-16,-3.88767793999e-16,-6.46211599856e-16,5.04099800097e-16,8.91078660512e-17,8.22828133754e-16,-8.78203759713e-16,-8.95822045016e-18,-2.3197860733e-16,-1.56434110457e-15,1.78730728134e-16,8.11322038198e-17,6.15772623863e-16,5.92428395837e-16,-4.38071887793e-16,-9.81006454456e-16,-1.56293164175e-15,-1.02999206386e-17,1.30971622436e-16,1.03343101763e-16,1.31481197457e-15,6.71392195312e-16,1.94126398984e-16,-1.63687422991e-15,-2.43193323552e-16,8.37871438897e-16,-1.07254699913e-16,1.55908272403e-16,6.7816845889e-17,-9.91231836195e-17,-6.07085453956e-16,-7.05273513202e-17,6.08535574362e-16,2.03287907341e-17,-6.10188982675e-16,-1.27621437723e-15,2.15620707053e-17,4.13033593872e-16,8.6205677064e-16,-8.31989642111e-16,-1.29860315209e-15,1.63194449816e-16,-1.54601808786e-15,-9.5379975619e-16,-1.40718599967e-15,7.38775360332e-16,6.77843198238e-16,-3.85217031884e-16,-1.86043671788e-15,-1.16717074373e-15,4.80952083715e-16,3.07317105791e-16,7.68157239206e-17,-3.24718550659e-17,4.31404044432e-16,2.07768372819e-15,-2.34729770343e-17,4.22188325966e-16,-9.70577784809e-16,1.43743524028e-15,-1.62316584869e-15,3.83604281153e-16,3.44884711068e-16,7.40103507993e-16,2.35627625267e-16,-7.30535423821e-16,-3.4558944248e-16,-5.95660673564e-16,-1.49820477205e-15,-1.1622647289e-16,1.04197249787e-15,-8.21337355766e-16,1.4459428392e-15,-2.979516319e-15,2.1258494097e-16,-1.7260498586e-16,1.17744355932e-15,-1.9662006398e-16,7.42207537834e-16,8.19873682834e-16,3.11199904821e-16,-5.27464356914e-17,3.67707166798e-16,-7.26035984805e-16,-6.69413526347e-16,-1.68983750604e-15,-1.42339482215e-15,5.43103973252e-16,2.94902990916e-16,-3.03339439071e-16,1.78879805933e-16,-2.4849236167e-16,-3.39355279988e-17,-1.4937866482e-15,-1.09287578987e-16,-1.47538231632e-15,-6.96870946365e-16,7.12483457649e-16,1.62101777314e-16,-1.01091010563e-15,2.2016080365e-16,-1.5645037349e-16,1.00894498919e-15,-1.81994176673e-15,-1.65422146467e-16,-4.01073488657e-16,-6.17995238317e-17,1.46952762459e-15,2.523751607e-16,-9.06935117284e-17,-7.97755958515e-16,9.70767520189e-16,6.59879323493e-16,-1.32554557608e-15,-8.62374407995e-16,1.2490009027e-16,-1.54288067782e-15,-7.95858604713e-16,1.12946761319e-15,-1.15077218588e-15,-3.82723366887e-16,-1.32873041996e-15,1.36067372647e-16,-5.08917723501e-16,5.13789857014e-16,3.39355279988e-17,-8.24020756143e-16,-1.6588293239e-16,-5.17977587905e-16,-1.96952100896e-16,-2.95878772871e-16,-1.00593632816e-16,-5.47271375353e-16,1.55203540991e-16,2.98128492379e-16,-1.785138877e-16,-8.53605922925e-17,-1.96918219578e-16,5.60491865594e-16,1.55461039007e-16,2.729987189e-18,-4.02781107078e-17,-7.85396053748e-16,1.67956469045e-16,-7.19232616173e-17,2.72500663527e-16,7.80137673212e-16,-6.48569739581e-16,-6.88468379528e-18,-1.72886200798e-16,-8.17081862239e-16,2.6834003769e-16,7.70515378931e-16,-2.61130093243e-16,-3.43603997251e-16,-8.80263743841e-16,-3.20490162187e-16,2.16054387922e-16,-6.5334022914e-16,8.50610814424e-16,5.51303252182e-16,8.39375769411e-16,2.23670908184e-16,-2.31084140538e-16,6.17100771524e-16,-1.09417683247e-15,-9.37184357896e-16,-3.08591043344e-16,2.23074596989e-17,-1.41466699466e-15,-2.74411569856e-16,-3.35018471298e-16,3.073713159e-17,2.11755526308e-15,-2.40150781206e-15,9.93074979888e-16,2.57769066508e-16,2.92300905702e-16,3.49687726692e-15,-3.07018950194e-16,-6.41847686111e-17,-8.6925909179e-17,-6.43894117712e-16,1.31017701029e-15,3.87710696881e-16,1.32137139772e-15,-4.87497954331e-16,4.42002120668e-16,-4.43032112732e-16,-1.74149973955e-16,-9.84889253486e-16,6.33214726313e-16,2.85416221907e-16,-2.36328968548e-16,4.14775093611e-17,4.85654810638e-16,-7.54198136235e-18,1.92529911285e-15,4.01696904906e-17,-9.25095503673e-16,1.17948999092e-15,3.09458405082e-16,2.26869304593e-16,1.5674988434e-15,-2.11408581613e-15,3.28540363317e-16,1.64222747814e-17,-1.17278148998e-15,-4.12213665979e-16,5.32939577885e-16,-5.14752086442e-16,1.149027298e-15,-3.12304435784e-16,-7.07984018633e-17,6.98483697097e-16,1.7593890754e-15,7.23433899591e-16,-1.50053580672e-16,5.30066442128e-16,-3.26697219624e-16,1.15437376997e-15,-3.40696980176e-16,6.45710156351e-16,-1.40036907851e-15,-3.94649590785e-17,-2.7119962092e-16,7.95194530882e-18,-2.7707972364e-16,-6.95407273432e-16,-3.78156165236e-16,-5.42643187329e-16,-4.78539733881e-17,-1.20215998072e-16,4.75605611752e-16,1.57870000709e-17,-9.3311859975e-16,4.3329462197e-16,2.82434665932e-16,-9.06935117284e-17,1.1546753137e-16,-3.36644774557e-17,-5.58255698613e-16,2.60482960071e-16,1.51515051319e-15,-2.51426483799e-16,-2.44162329244e-16,5.42860027763e-16,3.31229184705e-15,-2.1626360506e-16,-5.06213994333e-16,-1.8313529946e-15,6.47458432354e-16,5.10523697969e-16,-2.5394725385e-16,-2.94997858606e-16,2.99239799606e-16,-2.29064813992e-16,5.35080877176e-16,1.14521564974e-15,8.30498864124e-17,3.82130443824e-16,2.93601948309e-16,4.11278541605e-16,-8.94629422626e-16,4.41297389256e-16,-1.80959271818e-16,9.45966395494e-17,-3.14364419912e-16,8.92569438499e-16,8.63567030385e-17,5.16513914972e-16,-3.83082508857e-16,2.27574036005e-16,-2.96495412857e-15,7.93988355965e-16,-4.53169403045e-16,3.52799386927e-15,1.42290693117e-15,-2.04590305201e-15,-4.24953041506e-16,-4.28476698566e-16,1.89084858881e-16,2.66883141021e-16,3.72423446249e-16,4.26389609384e-16,-1.09721259856e-16,7.60838874542e-17,-3.61879580121e-16,-1.57980453806e-15,-5.77446077066e-16,4.78349998501e-16,-7.68590920075e-16,3.41496579279e-16,-2.11386897569e-15,3.79904441239e-16,4.86427304686e-16,1.7134731134e-15,2.71355474982e-16,2.51426483799e-16,-1.00641066661e-15,5.86610973555e-16,1.04733929862e-16,1.46388977329e-15,9.39325657187e-16,2.25622472094e-16,-2.0944075467e-16,1.0,-3.67117631867e-16,1.10375169291e-16,1.58748882095e-15,-8.69231986736e-16,1.33356867216e-17,7.56149700146e-16,-2.56034343032e-16,3.04904755957e-16,-2.41072353052e-16,-1.44876515298e-16,1.05099848095e-17,2.04567265905e-15,-1.22514845491e-16,-1.29819657628e-15,9.33660700836e-16,-1.09016528443e-16,-1.15472952381e-15,-1.92879566485e-16,3.2114068349e-16,-5.08271437362e-16,-3.77654721731e-16,-1.20227178907e-15,3.91396984267e-17,5.713745449e-17,6.42877678175e-15,4.16333634234e-17,8.39789121489e-16,2.56874599716e-16,-5.36463234946e-16,-1.42735216008e-16,5.69097720338e-16,3.35655440074e-16,1.2558855865e-15,1.72405086084e-15,3.02709246558e-16,-1.2294852636e-15,1.28789665564e-16,-1.15460755106e-15,-1.92032533538e-16,-3.11274443721e-16,-1.16432471303e-15,-3.87249910958e-16,8.11172960399e-16,-1.44624438293e-15,4.82822332462e-16,6.83875766888e-16,8.385219602e-16,-1.27762384006e-15,7.16251060198e-16,3.25152231528e-16,-3.40981583247e-17,7.43274799347e-16,-3.06829214813e-16,1.05590449578e-15,-4.89246230334e-17,-1.36339778443e-15,2.30108358583e-16,3.27971157177e-18,1.25008510488e-16,-7.51243685315e-16,-4.02415188845e-16,-9.54097911787e-18,1.56374479338e-15,-9.20623169712e-16,9.25908655303e-16,-1.17635935715e-15,1.85317256332e-16,1.47044919643e-15,-6.83101578774e-16,-3.82167713274e-16,-1.68186862007e-17,-1.34657909823e-15,-7.56447855743e-16,-6.11733970771e-16,4.85722573274e-16,-3.95367874724e-16,-3.79931546293e-16,8.01604876227e-16,1.47803861164e-16,-1.49321744206e-16,7.18365254435e-16,7.14706072102e-16,5.72011513676e-16,-9.59789973193e-16,-2.09771436332e-15,-1.81224393131e-16,-5.41247277032e-16,-1.23782684406e-15,4.03824651669e-16,7.49563171948e-16,-2.54353829665e-16,2.74899460834e-16,-1.51446780464e-15,-1.1543771581e-15,4.90872533593e-16,-2.50662460081e-17,4.37936362521e-16,1.43299001137e-15,1.48617012793e-16,7.85504473966e-16,1.46085400721e-15,-1.53100188777e-15,-1.35931847375e-16,-7.5017303567e-16,3.07642366443e-17,-3.72735154373e-16,6.89010480615e-17,1.48210436979e-16,4.76046068884e-16,2.05456311686e-17,-1.7021974108e-16,-2.18690354454e-16,-5.04154010206e-17,-5.9620277465e-16,-2.69370029754e-16,4.01114146238e-16,8.23993651089e-17,-1.26271606019e-15,1.09504419421e-17,-3.08292887746e-16,4.80030511868e-16,-1.25116930705e-16,-3.87981747424e-16,3.82398106236e-16,4.45268279713e-16,-8.86010015355e-16,-8.27463098041e-16,9.15933995316e-16,4.94829871522e-16,4.70082956935e-16,-5.73813999788e-17,7.53845770529e-16,-9.02489888377e-16,1.55366171317e-16,-4.63740374226e-16,-1.02541130968e-15,-2.98318227759e-16,4.35984798611e-16,6.4881368507e-16,-4.09774211091e-16,-1.67823654279e-15,3.59873806102e-16,-8.35919874986e-17,1.95373231482e-15,4.57641737006e-16,-2.07733136248e-16,9.4114847209e-16,-1.9416434606e-15,-8.49079378855e-16,1.16657443254e-15,9.8038981447e-16,-2.30474276816e-16,8.46761896711e-16,-6.23923621915e-16,-4.49076539843e-16,4.25183434467e-16,3.06151588456e-17,1.85940672581e-16,3.37715424202e-16,-3.92792894564e-16,-8.29387556897e-16,8.11254275562e-16,1.09850347677e-15,1.38594580148e-15,-2.50342281627e-16,-9.19728702919e-16,-2.49908600758e-16,1.516148318e-15,1.48654282243e-17,-2.36640676672e-16,-4.28246305605e-16,-7.22536044667e-17,-3.72152395706e-17,4.07172125877e-16,-3.87900432261e-16,-2.89563295217e-16,3.19839640883e-18,-1.51489470924e-15,-1.19045398539e-16,5.5364783938e-16,4.04448067919e-16,3.06287113727e-16,-4.84326662976e-16,8.49309771817e-16,7.82793968535e-17,-1.67522788176e-16,-7.34818022402e-17,-1.40729441989e-16,9.79576662841e-17,6.46970541376e-16,-4.96347754564e-16,-6.34746161882e-16,-2.53838833633e-16,4.92634362123e-16,9.24716032913e-16,-1.97107954958e-16,1.09252342416e-15,2.97071395261e-16,1.37476835471e-16,9.05606969623e-15,-5.86824425858e-16,8.28872560865e-16,-9.26884437258e-16,7.92497577978e-16,-6.25476233307e-16,-3.37213980697e-16,-5.66061954255e-16,-1.21932086823e-15,9.34202801922e-16,-8.2751730815e-16,7.95072558138e-16,-3.56702514748e-17,1.58185096966e-16,8.02851708726e-17,1.14833273099e-15,9.31668479344e-17,7.0742836502e-16,-8.30390443907e-16,4.78458418718e-16,-9.51760100853e-16,-3.35370837004e-16,8.37058287267e-16,6.62339107171e-16,6.62718577932e-16,-5.04696111292e-16,-7.37853788485e-16,5.57876227852e-16,-7.23135743994e-16,-3.05636592424e-16,5.92082806394e-16,-1.27767805017e-15,5.61061071734e-16,2.89007641603e-18,-6.69345763711e-16,3.26073803375e-16,2.66476565206e-16,-9.378348792e-18,-7.24314813856e-16,6.75457953458e-16,2.8392544392e-16,-7.43491639782e-16,7.02644322934e-16,1.95969542677e-16,-1.62482095107e-17,-6.93780970173e-16,3.60063541482e-16,3.00920312973e-16,2.64003229e-17,-1.49939739444e-15,-9.34636482791e-16,8.10698621949e-16,1.06149427796e-15,-9.31465191437e-17,-3.9681799513e-17,-1.38452617426e-16,-5.04072695043e-16,-1.74990230639e-16,-1.09797154008e-15,5.16778189252e-16,-3.34042689343e-16,4.61870125479e-16,-1.35579481669e-16,-6.13766849844e-16,-2.94442204993e-16,-3.21039039537e-16,4.25251197103e-16,-1.82389910466e-16,4.4370973909e-16,-1.44312730169e-15,2.57741961454e-16,6.72367977267e-16,-1.01023247927e-15,2.92409325919e-16,1.81237945658e-16,4.12742214538e-17,-6.94414550818e-16,1.20346441146e-16,9.15337684121e-17,3.95130705499e-16,-1.11783785082e-16,9.89334482393e-17,-4.59322250373e-16,5.90456503136e-16,-8.5272500866e-17,-3.16099143388e-16,-1.07891668689e-16,4.22107010803e-16,-8.385219602e-16,-8.25891004891e-16,8.25972320054e-16,3.12033385241e-16,-1.84528499252e-15,2.54818681347e-15,-9.64668882969e-17,-4.65447992648e-16,1.21953770867e-15,1.61058232723e-16,1.24222463913e-16,5.24645431266e-16,1.86333695869e-16,9.60603124822e-17,3.7356185853e-16,8.67734432485e-16,4.86779670392e-16,-1.13761437607e-15,-3.10865538565e-16,-1.76013446439e-17,-1.44437413419e-15,-3.7217950076e-16,4.19247427573e-17,1.25095246661e-15,-8.93382590128e-17,-3.6488824115e-16,1.93123511974e-16,1.68159756953e-16,5.09791861503e-16,4.20670442924e-17,6.92371507349e-16,-4.36526899697e-16,5.03069808033e-17,1.19641709734e-16,1.74014448684e-16,1.95660375651e-16,-5.9739539704e-17,2.26489833832e-16,-6.79415291388e-16,-3.8917606388e-16,-1.06333128067e-16,-5.93275428784e-16,-4.70482756487e-16,-2.8269555208e-16,-8.19006321096e-16,-2.73896573824e-17,1.86786350276e-15,2.82407560878e-16,-8.34076731293e-16,1.39184453893e-16,-1.17451621345e-15,7.23217059156e-16,4.23245423084e-16,-1.3407244065e-15,3.11409968992e-16,-5.00142462168e-16,-7.1795867862e-16,6.46716431492e-16,1.19431645563e-15,8.81930704681e-16,-1.05907578714e-15,2.93845893798e-16,-2.64003229e-16,-1.91253263226e-16,-4.58075417875e-16,1.27122704724e-17,5.30283282563e-16,1.79001778677e-16,-9.62554688733e-16,1.0604039348e-15,6.22196521735e-17,-2.21922632181e-17,-2.35298976484e-16,-4.37868599885e-16,-1.16638469716e-15,4.54063869837e-16,5.9739539704e-16,8.16621076316e-16,-3.46402594109e-16,-3.20490162187e-16,1.70734737112e-16,-3.42282625854e-15,-1.84856470409e-16,-3.36387276541e-16,-1.89572749859e-16,1.24612776695e-15,-3.36644774557e-17,3.39572120422e-16,5.6703773621e-16,-7.79460046854e-16,3.65186396747e-16,4.91143584136e-16,-6.36311478768e-16,-9.62419163461e-16,1.85181731061e-16,-4.30265632151e-16,4.08744219027e-17,1.07542013489e-15,-9.90960785652e-16,5.39336370703e-16,3.97346543689e-16,-7.87998138962e-16,9.72204088068e-16,3.32741646736e-16,1.14510722952e-15,2.09759239058e-17,-3.72586076575e-16,-1.13475309878e-15,1.34602344461e-15,7.29993322734e-16,-3.56824487492e-16,-1.24607228629e-15,3.88700031363e-16,2.85324064722e-15,3.37867212506e-15,-1.38588142698e-15,2.92260248121e-16,-9.90418684566e-17,7.80923719787e-16,-8.6139862604e-16,1.10832567082e-16,-1.25935503345e-15,-1.89410119533e-16,6.39787701984e-16,3.69672283236e-16,-5.83693792085e-16,2.00204707413e-16,2.33320307519e-16,-2.83952548974e-16,4.83025620369e-16,-5.79099485379e-16,-5.11743425413e-16,3.55415024668e-18,-3.39517910314e-16,1.56718713527e-15,1.04117289876e-15,-5.26515680013e-18,-8.34496859635e-18,-5.43835809719e-16,6.72815210663e-17,2.03397682811e-15,-7.79541362017e-17,1.53577237733e-16,8.61737439219e-16,2.38226322349e-16,1.14730273892e-15,-4.64119844987e-16,2.02230810223e-16,7.94123881237e-16,-3.2057147735e-16,9.96957778918e-18,8.08611532767e-16,-6.76745443538e-17,-4.39915031486e-16,-9.02977779355e-16,-9.34799113117e-16,-9.42889971829e-16,-6.2404305356e-17,1.00607185343e-16,-5.29922446527e-16,-3.32633226519e-16,-3.27429056091e-17,4.3698768562e-16,-3.99853761213e-16,6.7421112096e-16,1.02500473387e-15,-4.11996825544e-18,-2.74045651623e-16,9.5656447173e-16,-4.62195386131e-16,4.41473572109e-16,2.72465426956e-15,6.47932770804e-16,-1.57404471401e-15,2.73476445482e-16,4.52817037339e-16,-2.54505617969e-15,-4.17905727385e-16,-1.05189294775e-15,-2.42102345116e-16,3.40927373138e-16,2.93114057331e-16,-7.27126963241e-17,-3.09499062663e-16,3.15557042302e-16,2.72134745294e-16,5.08653449222e-16,4.56882795485e-16,1.16421629281e-15,-5.63514079149e-16,9.61538249196e-16,6.73506389548e-16,-3.34639000538e-15,-1.79461717568e-16,4.15384957334e-16,-4.04570040663e-16,5.91319629709e-16,-3.43319394181e-16,1.31784774066e-16,-1.31944693886e-15,8.60341528922e-16,1.76209958083e-16,-9.77950359582e-17,-2.90240921574e-16,-2.83884786338e-15,1.45873981297e-15,-7.07441917547e-17,-9.37292778114e-16,-6.44097405619e-16,-1.19468237386e-15,-1.44768095081e-16,8.62509933267e-16,3.37173323116e-16,3.35332889928e-15,5.4082714869e-16,4.33680868994e-19,3.36265303796e-16,-2.26029047909e-16,-1.99628725009e-16,4.27067235742e-16,-2.02875910515e-15,-4.53738609185e-17,-4.86427304686e-16,-8.46030060245e-16,-9.28077059648e-16,5.14453930844e-17,-6.28728839824e-16,2.06042458486e-16,2.52751920955e-15,-3.92345661168e-16,3.30573242391e-16,4.65942236373e-17,4.02618476752e-16,2.78152067351e-16,1.58862723323e-16,1.04186407765e-15,-1.14802102286e-15,-5.42941342926e-16,7.51352105532e-17,-1.38094830709e-15,-3.56160413661e-16,-1.93313247354e-16,-1.83501217693e-16,-6.13116328541e-17,7.39425881635e-17,4.50296267288e-16,-1.21539063536e-16,-6.58361440451e-16,1.07531171467e-15,-7.15681854058e-16,3.27429056091e-16,2.957432476e-16,1.85398571495e-16,-4.92227786308e-16,-3.15557042302e-16,2.27174236454e-16,-6.18537339403e-16,-4.82491989613e-16,-8.65816749893e-16,-6.89823632244e-16,-4.7935288551e-16,-6.48352899146e-17,4.90384642615e-16,-1.0132411403e-15,1.86320143342e-16,-7.46202145213e-16,6.90772309145e-16,4.76235804264e-16,1.30879634658e-15,-5.59100931615e-16,3.46944695195e-16,-2.21285663404e-16,-5.8476444173e-16,-1.02972101332e-16,6.31168294712e-16,6.9727752218e-17,-2.60208521397e-18,-3.4439682009e-16,-1.11367891905e-15,-1.03611780614e-15,3.35885833036e-16,4.55635962987e-17,-4.05572927673e-16,2.25863029451e-16,9.03601195604e-16,-5.92082806394e-16,1.76052748768e-15,-7.0828217423e-16,2.54288777535e-15,7.75367183653e-16,1.73689188032e-16,6.20651533639e-16,-7.89732862438e-16,-8.31488198606e-16,-1.66213614053e-15,-4.07660016855e-16,-2.04480529731e-16,-1.42358455753e-15,-8.36516186181e-16,1.71625815773e-16,1.33302657107e-16,-4.88975179791e-17,-2.04155269079e-16,2.35251542639e-16,1.22379320219e-17,2.97613496347e-17,-1.58483252563e-16,-3.04565942778e-16,-6.13793954898e-17,-1.6889701443e-15,-4.10804203155e-16,-2.68123197256e-16,5.63541184204e-16,-4.65834239672e-16,-5.68338778817e-16,8.04098541224e-16,7.0733349733e-16,1.96132173003e-16,2.20582626058e-16,-1.37357573232e-15,-3.48964021742e-16,-3.82940207322e-16,3.70905563207e-16,2.35217661321e-16,-2.25514051877e-17,7.61150582666e-16,-3.17291765778e-16,-1.06522863447e-16,1.11938453298e-15,5.35216402447e-16,4.41676860016e-16,2.50125441192e-16,-9.57032033917e-16,-1.12410081243e-15,-5.61996196108e-16,-1.23056946577e-16,-4.09977498998e-16,5.45082642217e-16,1.35408719827e-15,4.71831232939e-17,-2.19279889385e-16,4.26404855977e-16,-2.44541800004e-16,-5.11336849598e-17,-7.63149580422e-16,4.25061461723e-16,-8.15374243818e-16,5.58038858178e-16,-8.4193042078e-16,-1.29020058526e-17,-1.50996836562e-15,-2.20099817278e-16,-5.41633524056e-16,-2.53296732547e-16,-3.36319513905e-16,-2.77338915722e-16,-7.27093081923e-16,-7.5894152074e-17,1.13450915329e-15,-5.43049763144e-17,8.7812244455e-16,5.66983526101e-16,5.39282160594e-16,-1.66468401563e-15,-5.10659223241e-17,5.31530115061e-17,-1.53292634662e-15,-1.69146380929e-15,-2.66822154649e-16,-4.38193860537e-16,6.31496943496e-16,3.83665267525e-16,-2.34540034963e-16,-2.28495607851e-16,2.48180653546e-16,2.06491724761e-15,2.54679090317e-16,-2.4017788626e-16,7.78511369953e-16,7.81276085493e-16,2.56955914879e-16,5.6980245175e-16,4.81494184801e-16,1.1989920775e-16,-2.25622472094e-16,3.94107489698e-16,-2.12794052229e-15,-4.84204690232e-16,5.37330596684e-16,-1.43765208072e-16,2.21177243187e-16,-1.69338826815e-16,-9.74399597467e-16,1.521135648e-16,-4.97242221356e-16,4.59390013009e-16,1.28803218091e-16,-1.3420254491e-15,8.24535752175e-16,1.83745163182e-16,-3.75161056734e-16,-7.91101667681e-16,-1.41008624048e-15,-5.29382039507e-16,-3.85840448133e-16,-1.22582608127e-17,1.49165890143e-16,4.30943258509e-16,4.16143898854e-16,-7.47340557494e-16,-1.50145737857e-15,1.95698492134e-16,-4.53332033371e-16,1.01836399556e-15,-3.82869056554e-16,-9.89530994037e-16,3.66464569465e-17,-7.99904034069e-17,3.08618148398e-16,2.98999242249e-16,-6.50182490312e-16,-3.98454462784e-16,-4.5119073408e-16,1.07813064032e-15,2.7267684638e-16,-9.93915236572e-16,2.12693361187e-16,-6.77002941554e-16,-1.52666507908e-15,2.66463012679e-16,5.43930677409e-17,-1.87621185949e-16,1.3457659466e-16,6.70795884117e-16,-4.05708452944e-16,1.66912924454e-15,-3.64441007754e-16,3.53775168882e-16,3.46307726419e-16,2.62376925741e-16,-2.84006759083e-16,4.48493781176e-16,-4.09367635276e-16,-7.9678017656e-16,-4.90587930523e-16,1.43618840778e-15,1.01156062693e-16,-6.94865172346e-16,2.31889160651e-15,-8.51857646922e-16,3.81767913723e-16,3.93416310814e-16,-1.30104260698e-17,3.71617070883e-16,-6.6949484151e-16,-4.20507812599e-16,2.23372752586e-16,4.7759105698e-17,-7.69675122247e-16,6.02816407902e-17,-5.04777426455e-16,-1.21907692274e-15,7.3170771742e-16,-9.22330788133e-16,1.64316260251e-15,3.13984949152e-16,2.51033460512e-16,5.8771889265e-16,5.96378957503e-16,1.10859672137e-16,-9.13223489885e-16,-4.48209178106e-16,2.36789754471e-16,-1.32896081292e-15,-4.93298435954e-16,-1.04700048544e-15,-1.92369991464e-15,-1.17550554794e-15,-4.39074774802e-16,-5.57740702581e-16,1.24296155779e-16,1.30117813225e-15,-5.32126426256e-16,-1.98408997565e-17,2.21014612861e-16,1.92987986702e-16,4.30970363563e-18,9.88358700438e-16,-6.94924464652e-16,4.16333634234e-17,-1.30787308067e-15,1.89803142821e-16,-1.06678209289e-15,3.22062255337e-16,-1.32890660282e-15,-1.07281804967e-15,-8.8660632655e-16,-1.52384615343e-16,8.55571039363e-17,6.50846564143e-16,-1.2640713129e-15,-1.91817048356e-15,-6.66025394558e-16,-9.4770111897e-16,1.29480844449e-15,-5.28331718652e-16,-6.84565251707e-16,-9.4846006049e-16,1.66452138531e-16,-1.32760556021e-15,2.17799275793e-16,-5.74057945277e-16,5.19576786109e-16,9.89388692502e-16,-7.7547560387e-16,-3.83509413462e-16,-7.89783684415e-16,-1.89843800402e-16,3.81344397249e-16,2.43403387723e-16,5.70845996341e-16,1.84314369323e-17,2.03624010015e-15,-3.04159366964e-16,7.80449381337e-16,2.99781900692e-17,5.17896272742e-16,1.94451659635e-16,1.56038376664e-15,-4.10411179867e-16,2.24538269922e-16,7.7564501046e-17,-4.98777045057e-16,-2.6224140047e-17,2.54245409448e-16,-6.94594121803e-16,-5.82108146407e-16,6.58002298481e-16,1.34820540149e-16,2.72175402875e-16,1.57199150615e-16,-3.10732342634e-16,1.06867097636e-15,-4.308890484e-16,3.58930211399e-16,4.62737487217e-16,-5.48877349821e-16,1.06107478489e-15,-9.52498713583e-16,1.32616899233e-15,2.46005472937e-16,-5.26515680013e-17,-2.50836948868e-16,-1.0512695315e-16,-3.7689578021e-16,7.44081174713e-16,7.1197523788e-16,-5.03273095941e-17,-5.21392824748e-16,-8.13964780993e-17,5.12360065399e-16,-4.52281712516e-16,-1.90304586326e-16,-5.32072216147e-16,-8.18897900878e-16,5.18411268774e-16,5.69748241641e-17,-1.01199049615e-16,9.9949887776e-16,-5.99834851928e-17,-3.75242371897e-16,4.14165229889e-17,1.11981821385e-15,3.21465944142e-17,8.50944545405e-16,-6.01406945078e-16,-1.1515311274e-15,3.337716388e-16,1.04983296362e-15,3.08834988832e-16,4.80572612954e-16,-1.47691205782e-16,-2.99050064226e-16,-3.81977977894e-16,9.50709779998e-17,7.05219303093e-16,7.84172938173e-16,-6.61769901031e-16,1.38073146666e-16,1.0440866921e-16,-2.22098815034e-16,8.92298387956e-16,-2.50667542279e-16,-2.23161333163e-15,8.36001190149e-16,5.8790862803e-17,-9.00213063815e-16,1.68024231681e-16,9.91042100815e-16,4.81304449421e-16,-2.93927208961e-16,7.19747612205e-16,3.36102673471e-16,-6.63125153746e-17,-6.15989464298e-16,9.69344504838e-17,-4.36066113774e-16,3.24176449573e-17,-5.49067085201e-16,1.92364570453e-15,-1.58149860395e-15,1.96159278057e-16,1.03375966641e-15,-1.23055049223e-14,-1.08065141037e-15,9.08561420543e-17,-2.50599779643e-16,1.87363687933e-16,1.14366727351e-15,-4.12413565755e-16,1.93408115044e-16,-2.99438005316e-16,-1.13190706807e-15,1.29591975172e-15,-9.71987247633e-17,5.38848479725e-17,-1.08807819525e-15,1.23599047663e-17,-5.0832818857e-16,-4.84123375069e-16,-4.53467558642e-16,3.55293051923e-16,2.45490476905e-16,-5.55165722421e-16,-9.11475213881e-17,-3.13646135973e-16,1.57182209956e-16,-8.63567030385e-16,1.96701379143e-16,-2.22947203234e-15,-1.83599473515e-16,1.11434299288e-15,2.00157273568e-16,9.04224611853e-17,-4.69811906392e-16,-1.50324631215e-16,-3.30153114049e-16,1.77061056789e-15,3.3968054064e-16,-2.34177504862e-16,7.31700941156e-17,3.15570594829e-17,2.60772306526e-15,-1.44431992408e-15,7.20072872856e-16,6.8602892464e-16,4.7601896383e-16,1.61979804569e-16,-4.68510863785e-16,-3.81368114172e-16,-1.70156637126e-16,1.64668625957e-15,-1.7242067149e-15,-6.93564129739e-16,4.78702364207e-16,-1.15718253122e-15,1.4199795853e-15,-9.61687326995e-17,7.05436143528e-16,-6.90797720133e-17,3.11437074046e-17,1.25824372622e-15,-5.56520975137e-16,-2.82521910326e-16,2.18175358422e-16,-4.98614414731e-17,1.32451558402e-15,-3.08116704893e-16,8.2751730815e-17,6.89281531158e-17,4.56015433747e-16,-4.42571326809e-16,2.55763292489e-15,9.92234723204e-16,4.81778787871e-16,-4.05769439316e-16,-1.10057362529e-15,-9.81494345433e-16,6.39787701984e-16,5.50232602536e-18,-4.50269162233e-16,9.80335604361e-16,2.69424239863e-16,1.73282612217e-16,-1.39428399382e-15,-2.33103467084e-17,-1.29957893405e-15,5.72831441569e-17,2.4313233718e-17,4.55635962987e-16,3.99664025832e-17,1.04495405384e-15,-2.44142000453e-16,-2.20147251123e-16,-7.11761785578e-16,3.58925129201e-16,2.39600548603e-15,-3.0303450721e-16,4.57235161191e-16,-6.00268532797e-16,-4.93122253101e-16,-2.15830771224e-16,-3.59141969636e-16,-3.87385436229e-16,1.13253048432e-15,-6.09863722023e-17,2.30392961653e-19,4.54931231575e-16,-4.33165872962e-16,-1.06501179403e-15,4.42083435831e-16,-4.99437730755e-16,-1.81663495011e-15,-6.59520181523e-16,-1.32218454935e-16,6.24527556406e-16,3.44701751951e-16,-1.7298085673e-16,1.44280204104e-16,1.25001734224e-16,-1.17270017481e-16,-6.51287021276e-16,2.3641028371e-16,-3.48028897368e-16,6.009190541e-17,7.18392359489e-16,1.59526797154e-15,-1.43087581714e-16,1.42789426116e-16,6.14796841908e-16,1.24629039727e-16,5.5836411883e-17,1.36582368679e-16,-5.79458627348e-16,2.6467577316e-16,-4.03472285963e-16,2.4451469495e-15,7.17199737099e-17,7.70867744637e-16,5.48861086788e-15,-3.17779656756e-16,8.82106887534e-16,-3.55143974125e-17,-8.23993651089e-18,1.32597925695e-16,-6.76650575848e-16,7.1047768363e-16,-9.02706728811e-16,5.32106097465e-17,2.77386349567e-16,-1.28193354369e-16,6.18916810163e-16,1.08357875624e-15,3.49655200627e-17,-3.9248118644e-17,2.9197564505e-16,-2.80287945631e-15,-5.08545029004e-16,-1.20847884651e-16,-1.01494875872e-15,-2.62539556067e-16,-2.21394083622e-16,-7.13974235636e-16,1.05709711817e-18,-2.98236912596e-16,-9.51929507442e-17,-5.15971813886e-16,-1.19977134781e-16,-2.73639075808e-16,-4.21768197624e-16,-2.20194684968e-16,-3.41090003464e-16,1.44285625114e-15,-4.72413991606e-16,8.86904482147e-16,-2.11039952874e-16,-7.40239033264e-17,-5.01294426976e-16,-3.74588462462e-16,-2.30392961653e-16,-1.21875166209e-15,3.75405002223e-18,-1.38669457861e-16,1.84748050192e-16,-4.13677338912e-16,6.04442711161e-17,4.52661183276e-16,-9.89361587447e-16,6.64690470633e-16,3.83184152811e-16,1.71181970508e-16,3.26019593266e-16,-2.96319230004e-16
